digraph Tree {
node [shape=box, fontname="helvetica"] ;
edge [fontname="helvetica"] ;
0 [label="targeted_productivity <= 0.725\nsquared_error = 0.03\nsamples = 711\nvalue = 0.736"] ;
1 [label="targeted_productivity <= 0.625\nsquared_error = 0.032\nsamples = 266\nvalue = 0.653"] ;
0 -> 1 [labeldistance=2.5, labelangle=45, headlabel="True"] ;
2 [label="over_time <= 4800.0\nsquared_error = 0.037\nsamples = 80\nvalue = 0.584"] ;
1 -> 2 ;
3 [label="targeted_productivity <= 0.425\nsquared_error = 0.044\nsamples = 39\nvalue = 0.675"] ;
2 -> 3 ;
4 [label="no_of_style_change <= 0.5\nsquared_error = 0.026\nsamples = 8\nvalue = 0.831"] ;
3 -> 4 ;
5 [label="department_finishing <= 0.5\nsquared_error = 0.012\nsamples = 7\nvalue = 0.877"] ;
4 -> 5 ;
6 [label="day <= 2.0\nsquared_error = 0.012\nsamples = 4\nvalue = 0.816"] ;
5 -> 6 ;
7 [label="squared_error = 0.0\nsamples = 1\nvalue = 0.707"] ;
6 -> 7 ;
8 [label="day <= 3.5\nsquared_error = 0.011\nsamples = 3\nvalue = 0.852"] ;
6 -> 8 ;
9 [label="squared_error = 0.0\nsamples = 1\nvalue = 0.994"] ;
8 -> 9 ;
10 [label="smv <= 4.045\nsquared_error = 0.001\nsamples = 2\nvalue = 0.781"] ;
8 -> 10 ;
11 [label="squared_error = 0.0\nsamples = 1\nvalue = 0.806"] ;
10 -> 11 ;
12 [label="squared_error = 0.0\nsamples = 1\nvalue = 0.755"] ;
10 -> 12 ;
13 [label="quarter_num <= 2.5\nsquared_error = 0.001\nsamples = 3\nvalue = 0.958"] ;
5 -> 13 ;
14 [label="squared_error = 0.0\nsamples = 1\nvalue = 0.908"] ;
13 -> 14 ;
15 [label="smv <= 3.6\nsquared_error = 0.0\nsamples = 2\nvalue = 0.983"] ;
13 -> 15 ;
16 [label="squared_error = 0.0\nsamples = 1\nvalue = 0.978"] ;
15 -> 16 ;
17 [label="squared_error = 0.0\nsamples = 1\nvalue = 0.989"] ;
15 -> 17 ;
18 [label="squared_error = 0.0\nsamples = 1\nvalue = 0.508"] ;
4 -> 18 ;
19 [label="quarter_num <= 2.5\nsquared_error = 0.041\nsamples = 31\nvalue = 0.635"] ;
3 -> 19 ;
20 [label="department_finishing <= 0.5\nsquared_error = 0.036\nsamples = 15\nvalue = 0.57"] ;
19 -> 20 ;
21 [label="day <= 6.5\nsquared_error = 0.031\nsamples = 13\nvalue = 0.607"] ;
20 -> 21 ;
22 [label="day <= 3.5\nsquared_error = 0.02\nsamples = 8\nvalue = 0.658"] ;
21 -> 22 ;
23 [label="over_time <= 3975.0\nsquared_error = 0.005\nsamples = 5\nvalue = 0.583"] ;
22 -> 23 ;
24 [label="over_time <= 3375.0\nsquared_error = 0.001\nsamples = 4\nvalue = 0.55"] ;
23 -> 24 ;
25 [label="no_of_style_change <= 0.5\nsquared_error = 0.001\nsamples = 3\nvalue = 0.567"] ;
24 -> 25 ;
26 [label="quarter_num <= 1.5\nsquared_error = 0.0\nsamples = 2\nvalue = 0.55"] ;
25 -> 26 ;
27 [label="squared_error = 0.0\nsamples = 1\nvalue = 0.54"] ;
26 -> 27 ;
28 [label="squared_error = -0.0\nsamples = 1\nvalue = 0.561"] ;
26 -> 28 ;
29 [label="squared_error = 0.0\nsamples = 1\nvalue = 0.6"] ;
25 -> 29 ;
30 [label="squared_error = -0.0\nsamples = 1\nvalue = 0.5"] ;
24 -> 30 ;
31 [label="squared_error = 0.0\nsamples = 1\nvalue = 0.714"] ;
23 -> 31 ;
32 [label="over_time <= 1620.0\nsquared_error = 0.021\nsamples = 3\nvalue = 0.783"] ;
22 -> 32 ;
33 [label="targeted_productivity <= 0.55\nsquared_error = 0.006\nsamples = 2\nvalue = 0.874"] ;
32 -> 33 ;
34 [label="squared_error = 0.0\nsamples = 1\nvalue = 0.798"] ;
33 -> 34 ;
35 [label="squared_error = 0.0\nsamples = 1\nvalue = 0.951"] ;
33 -> 35 ;
36 [label="squared_error = -0.0\nsamples = 1\nvalue = 0.6"] ;
32 -> 36 ;
37 [label="targeted_productivity <= 0.55\nsquared_error = 0.038\nsamples = 5\nvalue = 0.526"] ;
21 -> 37 ;
38 [label="squared_error = 0.0\nsamples = 1\nvalue = 0.858"] ;
37 -> 38 ;
39 [label="smv <= 3.4\nsquared_error = 0.014\nsamples = 4\nvalue = 0.443"] ;
37 -> 39 ;
40 [label="squared_error = 0.0\nsamples = 1\nvalue = 0.272"] ;
39 -> 40 ;
41 [label="no_of_style_change <= 0.5\nsquared_error = 0.005\nsamples = 3\nvalue = 0.5"] ;
39 -> 41 ;
42 [label="team <= 4.5\nsquared_error = 0.0\nsamples = 2\nvalue = 0.45"] ;
41 -> 42 ;
43 [label="squared_error = 0.0\nsamples = 1\nvalue = 0.449"] ;
42 -> 43 ;
44 [label="squared_error = 0.0\nsamples = 1\nvalue = 0.451"] ;
42 -> 44 ;
45 [label="squared_error = -0.0\nsamples = 1\nvalue = 0.601"] ;
41 -> 45 ;
46 [label="team <= 5.5\nsquared_error = 0.0\nsamples = 2\nvalue = 0.326"] ;
20 -> 46 ;
47 [label="squared_error = 0.0\nsamples = 1\nvalue = 0.338"] ;
46 -> 47 ;
48 [label="squared_error = -0.0\nsamples = 1\nvalue = 0.314"] ;
46 -> 48 ;
49 [label="day <= 3.5\nsquared_error = 0.038\nsamples = 16\nvalue = 0.696"] ;
19 -> 49 ;
50 [label="day <= 2.5\nsquared_error = 0.054\nsamples = 7\nvalue = 0.596"] ;
49 -> 50 ;
51 [label="smv <= 10.11\nsquared_error = 0.012\nsamples = 5\nvalue = 0.731"] ;
50 -> 51 ;
52 [label="day <= 1.5\nsquared_error = 0.001\nsamples = 3\nvalue = 0.818"] ;
51 -> 52 ;
53 [label="squared_error = 0.0\nsamples = 1\nvalue = 0.865"] ;
52 -> 53 ;
54 [label="team <= 5.0\nsquared_error = 0.0\nsamples = 2\nvalue = 0.795"] ;
52 -> 54 ;
55 [label="squared_error = 0.0\nsamples = 1\nvalue = 0.787"] ;
54 -> 55 ;
56 [label="squared_error = -0.0\nsamples = 1\nvalue = 0.804"] ;
54 -> 56 ;
57 [label="idle_men? <= 0.5\nsquared_error = 0.0\nsamples = 2\nvalue = 0.601"] ;
51 -> 57 ;
58 [label="squared_error = 0.0\nsamples = 1\nvalue = 0.6"] ;
57 -> 58 ;
59 [label="squared_error = -0.0\nsamples = 1\nvalue = 0.601"] ;
57 -> 59 ;
60 [label="team <= 7.0\nsquared_error = 0.0\nsamples = 2\nvalue = 0.258"] ;
50 -> 60 ;
61 [label="squared_error = 0.0\nsamples = 1\nvalue = 0.256"] ;
60 -> 61 ;
62 [label="squared_error = -0.0\nsamples = 1\nvalue = 0.259"] ;
60 -> 62 ;
63 [label="wip <= 358.5\nsquared_error = 0.012\nsamples = 9\nvalue = 0.774"] ;
49 -> 63 ;
64 [label="smv <= 4.045\nsquared_error = 0.003\nsamples = 8\nvalue = 0.808"] ;
63 -> 64 ;
65 [label="quarter_num <= 4.5\nsquared_error = 0.002\nsamples = 5\nvalue = 0.785"] ;
64 -> 65 ;
66 [label="quarter_num <= 3.5\nsquared_error = 0.001\nsamples = 4\nvalue = 0.765"] ;
65 -> 66 ;
67 [label="squared_error = 0.0\nsamples = 1\nvalue = 0.715"] ;
66 -> 67 ;
68 [label="	no_of_workers <= 10.0\nsquared_error = 0.0\nsamples = 3\nvalue = 0.781"] ;
66 -> 68 ;
69 [label="squared_error = 0.0\nsamples = 2\nvalue = 0.769"] ;
68 -> 69 ;
70 [label="squared_error = 0.0\nsamples = 1\nvalue = 0.806"] ;
68 -> 70 ;
71 [label="squared_error = -0.0\nsamples = 1\nvalue = 0.865"] ;
65 -> 71 ;
72 [label="day <= 5.5\nsquared_error = 0.001\nsamples = 3\nvalue = 0.847"] ;
64 -> 72 ;
73 [label="squared_error = 0.0\nsamples = 1\nvalue = 0.816"] ;
72 -> 73 ;
74 [label="targeted_productivity <= 0.55\nsquared_error = 0.0\nsamples = 2\nvalue = 0.862"] ;
72 -> 74 ;
75 [label="squared_error = 0.0\nsamples = 1\nvalue = 0.872"] ;
74 -> 75 ;
76 [label="squared_error = -0.0\nsamples = 1\nvalue = 0.853"] ;
74 -> 76 ;
77 [label="squared_error = 0.0\nsamples = 1\nvalue = 0.5"] ;
63 -> 77 ;
78 [label="over_time <= 6180.0\nsquared_error = 0.015\nsamples = 41\nvalue = 0.497"] ;
2 -> 78 ;
79 [label="incentive <= 34.5\nsquared_error = 0.005\nsamples = 7\nvalue = 0.352"] ;
78 -> 79 ;
80 [label="over_time <= 5340.0\nsquared_error = 0.002\nsamples = 6\nvalue = 0.327"] ;
79 -> 80 ;
81 [label="targeted_productivity <= 0.55\nsquared_error = 0.0\nsamples = 2\nvalue = 0.276"] ;
80 -> 81 ;
82 [label="squared_error = 0.0\nsamples = 1\nvalue = 0.283"] ;
81 -> 82 ;
83 [label="squared_error = 0.0\nsamples = 1\nvalue = 0.268"] ;
81 -> 83 ;
84 [label="team <= 3.0\nsquared_error = 0.001\nsamples = 4\nvalue = 0.353"] ;
80 -> 84 ;
85 [label="squared_error = 0.0\nsamples = 1\nvalue = 0.404"] ;
84 -> 85 ;
86 [label="team <= 6.5\nsquared_error = 0.0\nsamples = 3\nvalue = 0.336"] ;
84 -> 86 ;
87 [label="squared_error = 0.0\nsamples = 1\nvalue = 0.351"] ;
86 -> 87 ;
88 [label="day <= 2.5\nsquared_error = 0.0\nsamples = 2\nvalue = 0.329"] ;
86 -> 88 ;
89 [label="squared_error = 0.0\nsamples = 1\nvalue = 0.33"] ;
88 -> 89 ;
90 [label="squared_error = 0.0\nsamples = 1\nvalue = 0.327"] ;
88 -> 90 ;
91 [label="squared_error = -0.0\nsamples = 1\nvalue = 0.501"] ;
79 -> 91 ;
92 [label="targeted_productivity <= 0.375\nsquared_error = 0.012\nsamples = 34\nvalue = 0.527"] ;
78 -> 92 ;
93 [label="quarter_num <= 1.5\nsquared_error = 0.004\nsamples = 6\nvalue = 0.4"] ;
92 -> 93 ;
94 [label="squared_error = 0.0\nsamples = 1\nvalue = 0.523"] ;
93 -> 94 ;
95 [label="wip <= 581.0\nsquared_error = 0.001\nsamples = 5\nvalue = 0.376"] ;
93 -> 95 ;
96 [label="squared_error = 0.0\nsamples = 1\nvalue = 0.45"] ;
95 -> 96 ;
97 [label="team <= 4.0\nsquared_error = 0.0\nsamples = 4\nvalue = 0.357"] ;
95 -> 97 ;
98 [label="squared_error = 0.0\nsamples = 1\nvalue = 0.379"] ;
97 -> 98 ;
99 [label="over_time <= 7080.0\nsquared_error = 0.0\nsamples = 3\nvalue = 0.35"] ;
97 -> 99 ;
100 [label="squared_error = 0.0\nsamples = 1\nvalue = 0.35"] ;
99 -> 100 ;
101 [label="day <= 2.0\nsquared_error = 0.0\nsamples = 2\nvalue = 0.35"] ;
99 -> 101 ;
102 [label="squared_error = 0.0\nsamples = 1\nvalue = 0.35"] ;
101 -> 102 ;
103 [label="squared_error = -0.0\nsamples = 1\nvalue = 0.35"] ;
101 -> 103 ;
104 [label="incentive <= 34.0\nsquared_error = 0.009\nsamples = 28\nvalue = 0.554"] ;
92 -> 104 ;
105 [label="smv <= 22.73\nsquared_error = 0.006\nsamples = 25\nvalue = 0.533"] ;
104 -> 105 ;
106 [label="targeted_productivity <= 0.55\nsquared_error = 0.002\nsamples = 9\nvalue = 0.574"] ;
105 -> 106 ;
107 [label="team <= 3.5\nsquared_error = 0.001\nsamples = 3\nvalue = 0.522"] ;
106 -> 107 ;
108 [label="squared_error = 0.0\nsamples = 1\nvalue = 0.567"] ;
107 -> 108 ;
109 [label="day <= 3.0\nsquared_error = 0.0\nsamples = 2\nvalue = 0.5"] ;
107 -> 109 ;
110 [label="squared_error = 0.0\nsamples = 1\nvalue = 0.5"] ;
109 -> 110 ;
111 [label="squared_error = -0.0\nsamples = 1\nvalue = 0.5"] ;
109 -> 111 ;
112 [label="quarter_num <= 3.5\nsquared_error = 0.0\nsamples = 6\nvalue = 0.6"] ;
106 -> 112 ;
113 [label="day <= 2.0\nsquared_error = 0.0\nsamples = 4\nvalue = 0.6"] ;
112 -> 113 ;
114 [label="squared_error = 0.0\nsamples = 1\nvalue = 0.6"] ;
113 -> 114 ;
115 [label="team <= 7.0\nsquared_error = 0.0\nsamples = 3\nvalue = 0.6"] ;
113 -> 115 ;
116 [label="squared_error = 0.0\nsamples = 1\nvalue = 0.6"] ;
115 -> 116 ;
117 [label="smv <= 13.89\nsquared_error = 0.0\nsamples = 2\nvalue = 0.6"] ;
115 -> 117 ;
118 [label="squared_error = 0.0\nsamples = 1\nvalue = 0.6"] ;
117 -> 118 ;
119 [label="squared_error = 0.0\nsamples = 1\nvalue = 0.6"] ;
117 -> 119 ;
120 [label="wip <= 1675.5\nsquared_error = 0.0\nsamples = 2\nvalue = 0.6"] ;
112 -> 120 ;
121 [label="squared_error = 0.0\nsamples = 1\nvalue = 0.6"] ;
120 -> 121 ;
122 [label="squared_error = 0.0\nsamples = 1\nvalue = 0.6"] ;
120 -> 122 ;
123 [label="smv <= 25.46\nsquared_error = 0.007\nsamples = 16\nvalue = 0.51"] ;
105 -> 123 ;
124 [label="quarter_num <= 3.5\nsquared_error = 0.009\nsamples = 3\nvalue = 0.417"] ;
123 -> 124 ;
125 [label="smv <= 23.6\nsquared_error = 0.0\nsamples = 2\nvalue = 0.483"] ;
124 -> 125 ;
126 [label="squared_error = 0.0\nsamples = 1\nvalue = 0.5"] ;
125 -> 126 ;
127 [label="squared_error = 0.0\nsamples = 1\nvalue = 0.467"] ;
125 -> 127 ;
128 [label="squared_error = 0.0\nsamples = 1\nvalue = 0.285"] ;
124 -> 128 ;
129 [label="	no_of_workers <= 57.5\nsquared_error = 0.004\nsamples = 13\nvalue = 0.531"] ;
123 -> 129 ;
130 [label="targeted_productivity <= 0.55\nsquared_error = 0.002\nsamples = 8\nvalue = 0.567"] ;
129 -> 130 ;
131 [label="over_time <= 6720.0\nsquared_error = 0.001\nsamples = 4\nvalue = 0.526"] ;
130 -> 131 ;
132 [label="quarter_num <= 1.5\nsquared_error = 0.0\nsamples = 2\nvalue = 0.501"] ;
131 -> 132 ;
133 [label="squared_error = 0.0\nsamples = 1\nvalue = 0.501"] ;
132 -> 133 ;
134 [label="squared_error = 0.0\nsamples = 1\nvalue = 0.501"] ;
132 -> 134 ;
135 [label="team <= 3.0\nsquared_error = 0.0\nsamples = 2\nvalue = 0.55"] ;
131 -> 135 ;
136 [label="squared_error = 0.0\nsamples = 1\nvalue = 0.55"] ;
135 -> 136 ;
137 [label="squared_error = 0.0\nsamples = 1\nvalue = 0.55"] ;
135 -> 137 ;
138 [label="day <= 4.0\nsquared_error = 0.0\nsamples = 4\nvalue = 0.608"] ;
130 -> 138 ;
139 [label="squared_error = 0.0\nsamples = 1\nvalue = 0.63"] ;
138 -> 139 ;
140 [label="quarter_num <= 1.5\nsquared_error = 0.0\nsamples = 3\nvalue = 0.6"] ;
138 -> 140 ;
141 [label="smv <= 28.38\nsquared_error = 0.0\nsamples = 2\nvalue = 0.6"] ;
140 -> 141 ;
142 [label="squared_error = 0.0\nsamples = 1\nvalue = 0.6"] ;
141 -> 142 ;
143 [label="squared_error = 0.0\nsamples = 1\nvalue = 0.6"] ;
141 -> 143 ;
144 [label="squared_error = 0.0\nsamples = 1\nvalue = 0.601"] ;
140 -> 144 ;
145 [label="team <= 6.5\nsquared_error = 0.002\nsamples = 5\nvalue = 0.474"] ;
129 -> 145 ;
146 [label="targeted_productivity <= 0.55\nsquared_error = 0.0\nsamples = 4\nvalue = 0.494"] ;
145 -> 146 ;
147 [label="wip <= 697.5\nsquared_error = 0.0\nsamples = 3\nvalue = 0.501"] ;
146 -> 147 ;
148 [label="squared_error = 0.0\nsamples = 1\nvalue = 0.5"] ;
147 -> 148 ;
149 [label="squared_error = 0.0\nsamples = 2\nvalue = 0.501"] ;
147 -> 149 ;
150 [label="squared_error = -0.0\nsamples = 1\nvalue = 0.476"] ;
146 -> 150 ;
151 [label="squared_error = 0.0\nsamples = 1\nvalue = 0.394"] ;
145 -> 151 ;
152 [label="incentive <= 63.0\nsquared_error = 0.003\nsamples = 3\nvalue = 0.725"] ;
104 -> 152 ;
153 [label="	no_of_workers <= 55.0\nsquared_error = 0.0\nsamples = 2\nvalue = 0.687"] ;
152 -> 153 ;
154 [label="squared_error = 0.0\nsamples = 1\nvalue = 0.673"] ;
153 -> 154 ;
155 [label="squared_error = -0.0\nsamples = 1\nvalue = 0.7"] ;
153 -> 155 ;
156 [label="squared_error = 0.0\nsamples = 1\nvalue = 0.801"] ;
152 -> 156 ;
157 [label="department_finishing <= 0.5\nsquared_error = 0.027\nsamples = 186\nvalue = 0.683"] ;
1 -> 157 ;
158 [label="incentive <= 28.5\nsquared_error = 0.023\nsamples = 159\nvalue = 0.664"] ;
157 -> 158 ;
159 [label="over_time <= 1860.0\nsquared_error = 0.037\nsamples = 77\nvalue = 0.614"] ;
158 -> 159 ;
160 [label="over_time <= 1080.0\nsquared_error = 0.045\nsamples = 36\nvalue = 0.688"] ;
159 -> 160 ;
161 [label="team <= 8.5\nsquared_error = 0.031\nsamples = 24\nvalue = 0.634"] ;
160 -> 161 ;
162 [label="quarter_num <= 2.5\nsquared_error = 0.028\nsamples = 20\nvalue = 0.673"] ;
161 -> 162 ;
163 [label="smv <= 3.4\nsquared_error = 0.013\nsamples = 12\nvalue = 0.726"] ;
162 -> 163 ;
164 [label="squared_error = 0.0\nsamples = 1\nvalue = 0.942"] ;
163 -> 164 ;
165 [label="smv <= 4.375\nsquared_error = 0.009\nsamples = 11\nvalue = 0.706"] ;
163 -> 165 ;
166 [label="smv <= 3.92\nsquared_error = 0.009\nsamples = 10\nvalue = 0.718"] ;
165 -> 166 ;
167 [label="team <= 4.5\nsquared_error = 0.003\nsamples = 3\nvalue = 0.664"] ;
166 -> 167 ;
168 [label="squared_error = 0.0\nsamples = 1\nvalue = 0.741"] ;
167 -> 168 ;
169 [label="squared_error = 0.0\nsamples = 2\nvalue = 0.626"] ;
167 -> 169 ;
170 [label="day <= 3.5\nsquared_error = 0.009\nsamples = 7\nvalue = 0.741"] ;
166 -> 170 ;
171 [label="team <= 6.0\nsquared_error = 0.002\nsamples = 2\nvalue = 0.825"] ;
170 -> 171 ;
172 [label="squared_error = 0.0\nsamples = 1\nvalue = 0.87"] ;
171 -> 172 ;
173 [label="squared_error = -0.0\nsamples = 1\nvalue = 0.78"] ;
171 -> 173 ;
174 [label="team <= 4.5\nsquared_error = 0.008\nsamples = 5\nvalue = 0.707"] ;
170 -> 174 ;
175 [label="day <= 5.0\nsquared_error = 0.005\nsamples = 4\nvalue = 0.739"] ;
174 -> 175 ;
176 [label="squared_error = 0.0\nsamples = 2\nvalue = 0.813"] ;
175 -> 176 ;
177 [label="squared_error = 0.0\nsamples = 2\nvalue = 0.665"] ;
175 -> 177 ;
178 [label="squared_error = -0.0\nsamples = 1\nvalue = 0.58"] ;
174 -> 178 ;
179 [label="squared_error = 0.0\nsamples = 1\nvalue = 0.592"] ;
165 -> 179 ;
180 [label="team <= 7.5\nsquared_error = 0.039\nsamples = 8\nvalue = 0.593"] ;
162 -> 180 ;
181 [label="quarter_num <= 3.5\nsquared_error = 0.018\nsamples = 4\nvalue = 0.448"] ;
180 -> 181 ;
182 [label="squared_error = 0.0\nsamples = 1\nvalue = 0.672"] ;
181 -> 182 ;
183 [label="day <= 2.5\nsquared_error = 0.002\nsamples = 3\nvalue = 0.374"] ;
181 -> 183 ;
184 [label="smv <= 4.515\nsquared_error = 0.0\nsamples = 2\nvalue = 0.341"] ;
183 -> 184 ;
185 [label="squared_error = 0.0\nsamples = 1\nvalue = 0.325"] ;
184 -> 185 ;
186 [label="squared_error = 0.0\nsamples = 1\nvalue = 0.356"] ;
184 -> 186 ;
187 [label="squared_error = 0.0\nsamples = 1\nvalue = 0.44"] ;
183 -> 187 ;
188 [label="day <= 1.5\nsquared_error = 0.018\nsamples = 4\nvalue = 0.738"] ;
180 -> 188 ;
189 [label="squared_error = 0.0\nsamples = 1\nvalue = 0.93"] ;
188 -> 189 ;
190 [label="smv <= 4.865\nsquared_error = 0.008\nsamples = 3\nvalue = 0.674"] ;
188 -> 190 ;
191 [label="squared_error = 0.0\nsamples = 1\nvalue = 0.791"] ;
190 -> 191 ;
192 [label="targeted_productivity <= 0.675\nsquared_error = 0.001\nsamples = 2\nvalue = 0.615"] ;
190 -> 192 ;
193 [label="squared_error = 0.0\nsamples = 1\nvalue = 0.65"] ;
192 -> 193 ;
194 [label="squared_error = 0.0\nsamples = 1\nvalue = 0.58"] ;
192 -> 194 ;
195 [label="team <= 10.5\nsquared_error = 0.002\nsamples = 4\nvalue = 0.439"] ;
161 -> 195 ;
196 [label="day <= 5.0\nsquared_error = 0.0\nsamples = 3\nvalue = 0.417"] ;
195 -> 196 ;
197 [label="quarter_num <= 3.0\nsquared_error = 0.0\nsamples = 2\nvalue = 0.405"] ;
196 -> 197 ;
198 [label="squared_error = 0.0\nsamples = 1\nvalue = 0.399"] ;
197 -> 198 ;
199 [label="squared_error = 0.0\nsamples = 1\nvalue = 0.411"] ;
197 -> 199 ;
200 [label="squared_error = -0.0\nsamples = 1\nvalue = 0.441"] ;
196 -> 200 ;
201 [label="squared_error = 0.0\nsamples = 1\nvalue = 0.505"] ;
195 -> 201 ;
202 [label="team <= 10.5\nsquared_error = 0.056\nsamples = 12\nvalue = 0.796"] ;
160 -> 202 ;
203 [label="day <= 1.5\nsquared_error = 0.048\nsamples = 11\nvalue = 0.829"] ;
202 -> 203 ;
204 [label="over_time <= 1500.0\nsquared_error = 0.113\nsamples = 2\nvalue = 0.593"] ;
203 -> 204 ;
205 [label="squared_error = 0.0\nsamples = 1\nvalue = 0.929"] ;
204 -> 205 ;
206 [label="squared_error = -0.0\nsamples = 1\nvalue = 0.258"] ;
204 -> 206 ;
207 [label="quarter_num <= 1.5\nsquared_error = 0.018\nsamples = 9\nvalue = 0.881"] ;
203 -> 207 ;
208 [label="wip <= 127.0\nsquared_error = 0.0\nsamples = 2\nvalue = 0.7"] ;
207 -> 208 ;
209 [label="squared_error = 0.0\nsamples = 1\nvalue = 0.716"] ;
208 -> 209 ;
210 [label="squared_error = 0.0\nsamples = 1\nvalue = 0.684"] ;
208 -> 210 ;
211 [label="team <= 5.5\nsquared_error = 0.012\nsamples = 7\nvalue = 0.933"] ;
207 -> 211 ;
212 [label="day <= 3.5\nsquared_error = 0.001\nsamples = 2\nvalue = 1.065"] ;
211 -> 212 ;
213 [label="squared_error = 0.0\nsamples = 1\nvalue = 1.033"] ;
212 -> 213 ;
214 [label="squared_error = -0.0\nsamples = 1\nvalue = 1.097"] ;
212 -> 214 ;
215 [label="team <= 8.0\nsquared_error = 0.006\nsamples = 5\nvalue = 0.88"] ;
211 -> 215 ;
216 [label="	no_of_workers <= 11.0\nsquared_error = 0.0\nsamples = 3\nvalue = 0.924"] ;
215 -> 216 ;
217 [label="squared_error = 0.0\nsamples = 1\nvalue = 0.914"] ;
216 -> 217 ;
218 [label="	no_of_workers <= 13.5\nsquared_error = 0.0\nsamples = 2\nvalue = 0.929"] ;
216 -> 218 ;
219 [label="squared_error = 0.0\nsamples = 1\nvalue = 0.929"] ;
218 -> 219 ;
220 [label="squared_error = -0.0\nsamples = 1\nvalue = 0.929"] ;
218 -> 220 ;
221 [label="team <= 9.5\nsquared_error = 0.008\nsamples = 2\nvalue = 0.815"] ;
215 -> 221 ;
222 [label="squared_error = 0.0\nsamples = 1\nvalue = 0.727"] ;
221 -> 222 ;
223 [label="squared_error = -0.0\nsamples = 1\nvalue = 0.902"] ;
221 -> 223 ;
224 [label="squared_error = 0.0\nsamples = 1\nvalue = 0.436"] ;
202 -> 224 ;
225 [label="idle_men <= 20.0\nsquared_error = 0.02\nsamples = 41\nvalue = 0.549"] ;
159 -> 225 ;
226 [label="	no_of_workers <= 56.5\nsquared_error = 0.017\nsamples = 39\nvalue = 0.563"] ;
225 -> 226 ;
227 [label="incentive <= 11.5\nsquared_error = 0.017\nsamples = 16\nvalue = 0.505"] ;
226 -> 227 ;
228 [label="no_of_style_change <= 1.5\nsquared_error = 0.014\nsamples = 13\nvalue = 0.471"] ;
227 -> 228 ;
229 [label="wip <= 1381.5\nsquared_error = 0.011\nsamples = 12\nvalue = 0.452"] ;
228 -> 229 ;
230 [label="team <= 9.0\nsquared_error = 0.004\nsamples = 7\nvalue = 0.511"] ;
229 -> 230 ;
231 [label="smv <= 31.175\nsquared_error = 0.002\nsamples = 5\nvalue = 0.54"] ;
230 -> 231 ;
232 [label="	no_of_workers <= 25.0\nsquared_error = 0.001\nsamples = 4\nvalue = 0.558"] ;
231 -> 232 ;
233 [label="over_time <= 2640.0\nsquared_error = 0.0\nsamples = 2\nvalue = 0.533"] ;
232 -> 233 ;
234 [label="squared_error = 0.0\nsamples = 1\nvalue = 0.528"] ;
233 -> 234 ;
235 [label="squared_error = -0.0\nsamples = 1\nvalue = 0.538"] ;
233 -> 235 ;
236 [label="targeted_productivity <= 0.675\nsquared_error = 0.0\nsamples = 2\nvalue = 0.584"] ;
232 -> 236 ;
237 [label="squared_error = 0.0\nsamples = 1\nvalue = 0.581"] ;
236 -> 237 ;
238 [label="squared_error = 0.0\nsamples = 1\nvalue = 0.586"] ;
236 -> 238 ;
239 [label="squared_error = 0.0\nsamples = 1\nvalue = 0.468"] ;
231 -> 239 ;
240 [label="day <= 4.0\nsquared_error = 0.001\nsamples = 2\nvalue = 0.437"] ;
230 -> 240 ;
241 [label="squared_error = 0.0\nsamples = 1\nvalue = 0.463"] ;
240 -> 241 ;
242 [label="squared_error = -0.0\nsamples = 1\nvalue = 0.411"] ;
240 -> 242 ;
243 [label="quarter_num <= 3.5\nsquared_error = 0.009\nsamples = 5\nvalue = 0.37"] ;
229 -> 243 ;
244 [label="wip <= 1405.0\nsquared_error = 0.005\nsamples = 3\nvalue = 0.307"] ;
243 -> 244 ;
245 [label="squared_error = 0.0\nsamples = 1\nvalue = 0.412"] ;
244 -> 245 ;
246 [label="	no_of_workers <= 51.5\nsquared_error = 0.0\nsamples = 2\nvalue = 0.255"] ;
244 -> 246 ;
247 [label="squared_error = 0.0\nsamples = 1\nvalue = 0.249"] ;
246 -> 247 ;
248 [label="squared_error = -0.0\nsamples = 1\nvalue = 0.261"] ;
246 -> 248 ;
249 [label="over_time <= 6180.0\nsquared_error = 0.0\nsamples = 2\nvalue = 0.464"] ;
243 -> 249 ;
250 [label="squared_error = 0.0\nsamples = 1\nvalue = 0.457"] ;
249 -> 250 ;
251 [label="squared_error = -0.0\nsamples = 1\nvalue = 0.471"] ;
249 -> 251 ;
252 [label="squared_error = -0.0\nsamples = 1\nvalue = 0.7"] ;
228 -> 252 ;
253 [label="team <= 7.0\nsquared_error = 0.0\nsamples = 3\nvalue = 0.651"] ;
227 -> 253 ;
254 [label="squared_error = 0.0\nsamples = 1\nvalue = 0.651"] ;
253 -> 254 ;
255 [label="over_time <= 4680.0\nsquared_error = 0.0\nsamples = 2\nvalue = 0.65"] ;
253 -> 255 ;
256 [label="squared_error = 0.0\nsamples = 1\nvalue = 0.65"] ;
255 -> 256 ;
257 [label="squared_error = 0.0\nsamples = 1\nvalue = 0.65"] ;
255 -> 257 ;
258 [label="smv <= 35.835\nsquared_error = 0.014\nsamples = 23\nvalue = 0.603"] ;
226 -> 258 ;
259 [label="wip <= 269.5\nsquared_error = 0.008\nsamples = 20\nvalue = 0.629"] ;
258 -> 259 ;
260 [label="smv <= 27.18\nsquared_error = 0.018\nsamples = 2\nvalue = 0.489"] ;
259 -> 260 ;
261 [label="squared_error = 0.0\nsamples = 1\nvalue = 0.356"] ;
260 -> 261 ;
262 [label="squared_error = 0.0\nsamples = 1\nvalue = 0.622"] ;
260 -> 262 ;
263 [label="targeted_productivity <= 0.675\nsquared_error = 0.004\nsamples = 18\nvalue = 0.645"] ;
259 -> 263 ;
264 [label="wip <= 922.0\nsquared_error = 0.003\nsamples = 7\nvalue = 0.606"] ;
263 -> 264 ;
265 [label="quarter_num <= 2.5\nsquared_error = 0.001\nsamples = 3\nvalue = 0.547"] ;
264 -> 265 ;
266 [label="quarter_num <= 1.5\nsquared_error = 0.0\nsamples = 2\nvalue = 0.528"] ;
265 -> 266 ;
267 [label="squared_error = 0.0\nsamples = 1\nvalue = 0.521"] ;
266 -> 267 ;
268 [label="squared_error = 0.0\nsamples = 1\nvalue = 0.536"] ;
266 -> 268 ;
269 [label="squared_error = 0.0\nsamples = 1\nvalue = 0.585"] ;
265 -> 269 ;
270 [label="team <= 6.0\nsquared_error = 0.0\nsamples = 4\nvalue = 0.65"] ;
264 -> 270 ;
271 [label="team <= 3.5\nsquared_error = 0.0\nsamples = 2\nvalue = 0.65"] ;
270 -> 271 ;
272 [label="squared_error = 0.0\nsamples = 1\nvalue = 0.65"] ;
271 -> 272 ;
273 [label="squared_error = -0.0\nsamples = 1\nvalue = 0.65"] ;
271 -> 273 ;
274 [label="wip <= 1115.0\nsquared_error = 0.0\nsamples = 2\nvalue = 0.651"] ;
270 -> 274 ;
275 [label="squared_error = 0.0\nsamples = 1\nvalue = 0.651"] ;
274 -> 275 ;
276 [label="squared_error = -0.0\nsamples = 1\nvalue = 0.65"] ;
274 -> 276 ;
277 [label="day <= 2.5\nsquared_error = 0.003\nsamples = 11\nvalue = 0.67"] ;
263 -> 277 ;
278 [label="squared_error = 0.0\nsamples = 1\nvalue = 0.527"] ;
277 -> 278 ;
279 [label="	no_of_workers <= 59.5\nsquared_error = 0.001\nsamples = 10\nvalue = 0.684"] ;
277 -> 279 ;
280 [label="wip <= 465.5\nsquared_error = 0.0\nsamples = 8\nvalue = 0.692"] ;
279 -> 280 ;
281 [label="quarter_num <= 2.5\nsquared_error = 0.001\nsamples = 2\nvalue = 0.669"] ;
280 -> 281 ;
282 [label="squared_error = 0.0\nsamples = 1\nvalue = 0.638"] ;
281 -> 282 ;
283 [label="squared_error = -0.0\nsamples = 1\nvalue = 0.7"] ;
281 -> 283 ;
284 [label="day <= 6.5\nsquared_error = 0.0\nsamples = 6\nvalue = 0.7"] ;
280 -> 284 ;
285 [label="quarter_num <= 1.5\nsquared_error = 0.0\nsamples = 4\nvalue = 0.7"] ;
284 -> 285 ;
286 [label="squared_error = 0.0\nsamples = 1\nvalue = 0.701"] ;
285 -> 286 ;
287 [label="wip <= 738.5\nsquared_error = 0.0\nsamples = 3\nvalue = 0.7"] ;
285 -> 287 ;
288 [label="squared_error = 0.0\nsamples = 1\nvalue = 0.7"] ;
287 -> 288 ;
289 [label="smv <= 25.095\nsquared_error = 0.0\nsamples = 2\nvalue = 0.7"] ;
287 -> 289 ;
290 [label="squared_error = 0.0\nsamples = 1\nvalue = 0.7"] ;
289 -> 290 ;
291 [label="squared_error = 0.0\nsamples = 1\nvalue = 0.7"] ;
289 -> 291 ;
292 [label="over_time <= 7050.0\nsquared_error = 0.0\nsamples = 2\nvalue = 0.701"] ;
284 -> 292 ;
293 [label="squared_error = 0.0\nsamples = 1\nvalue = 0.701"] ;
292 -> 293 ;
294 [label="squared_error = 0.0\nsamples = 1\nvalue = 0.701"] ;
292 -> 294 ;
295 [label="wip <= 750.5\nsquared_error = 0.002\nsamples = 2\nvalue = 0.651"] ;
279 -> 295 ;
296 [label="squared_error = 0.0\nsamples = 1\nvalue = 0.7"] ;
295 -> 296 ;
297 [label="squared_error = 0.0\nsamples = 1\nvalue = 0.602"] ;
295 -> 297 ;
298 [label="incentive <= 10.5\nsquared_error = 0.023\nsamples = 3\nvalue = 0.43"] ;
258 -> 298 ;
299 [label="squared_error = 0.0\nsamples = 1\nvalue = 0.234"] ;
298 -> 299 ;
300 [label="wip <= 968.0\nsquared_error = 0.006\nsamples = 2\nvalue = 0.528"] ;
298 -> 300 ;
301 [label="squared_error = 0.0\nsamples = 1\nvalue = 0.603"] ;
300 -> 301 ;
302 [label="squared_error = 0.0\nsamples = 1\nvalue = 0.452"] ;
300 -> 302 ;
303 [label="wip <= 1040.5\nsquared_error = 0.001\nsamples = 2\nvalue = 0.277"] ;
225 -> 303 ;
304 [label="squared_error = 0.0\nsamples = 1\nvalue = 0.251"] ;
303 -> 304 ;
305 [label="squared_error = -0.0\nsamples = 1\nvalue = 0.304"] ;
303 -> 305 ;
306 [label="	no_of_workers <= 9.0\nsquared_error = 0.005\nsamples = 82\nvalue = 0.71"] ;
158 -> 306 ;
307 [label="smv <= 3.4\nsquared_error = 0.011\nsamples = 2\nvalue = 0.371"] ;
306 -> 307 ;
308 [label="squared_error = 0.0\nsamples = 1\nvalue = 0.477"] ;
307 -> 308 ;
309 [label="squared_error = 0.0\nsamples = 1\nvalue = 0.264"] ;
307 -> 309 ;
310 [label="incentive <= 51.5\nsquared_error = 0.002\nsamples = 80\nvalue = 0.719"] ;
306 -> 310 ;
311 [label="incentive <= 47.0\nsquared_error = 0.001\nsamples = 60\nvalue = 0.702"] ;
310 -> 311 ;
312 [label="team <= 10.5\nsquared_error = 0.001\nsamples = 43\nvalue = 0.692"] ;
311 -> 312 ;
313 [label="no_of_style_change <= 1.5\nsquared_error = 0.0\nsamples = 38\nvalue = 0.699"] ;
312 -> 313 ;
314 [label="targeted_productivity <= 0.675\nsquared_error = 0.0\nsamples = 34\nvalue = 0.701"] ;
313 -> 314 ;
315 [label="	no_of_workers <= 57.5\nsquared_error = 0.001\nsamples = 2\nvalue = 0.675"] ;
314 -> 315 ;
316 [label="squared_error = 0.0\nsamples = 1\nvalue = 0.7"] ;
315 -> 316 ;
317 [label="squared_error = 0.0\nsamples = 1\nvalue = 0.65"] ;
315 -> 317 ;
318 [label="over_time <= 10125.0\nsquared_error = 0.0\nsamples = 32\nvalue = 0.703"] ;
314 -> 318 ;
319 [label="incentive <= 42.0\nsquared_error = 0.0\nsamples = 29\nvalue = 0.701"] ;
318 -> 319 ;
320 [label="wip <= 832.0\nsquared_error = 0.0\nsamples = 28\nvalue = 0.7"] ;
319 -> 320 ;
321 [label="over_time <= 1260.0\nsquared_error = 0.0\nsamples = 9\nvalue = 0.701"] ;
320 -> 321 ;
322 [label="squared_error = 0.0\nsamples = 1\nvalue = 0.701"] ;
321 -> 322 ;
323 [label="wip <= 319.0\nsquared_error = 0.0\nsamples = 8\nvalue = 0.701"] ;
321 -> 323 ;
324 [label="squared_error = 0.0\nsamples = 1\nvalue = 0.7"] ;
323 -> 324 ;
325 [label="smv <= 24.73\nsquared_error = 0.0\nsamples = 7\nvalue = 0.701"] ;
323 -> 325 ;
326 [label="incentive <= 35.0\nsquared_error = 0.0\nsamples = 2\nvalue = 0.7"] ;
325 -> 326 ;
327 [label="squared_error = 0.0\nsamples = 1\nvalue = 0.701"] ;
326 -> 327 ;
328 [label="squared_error = 0.0\nsamples = 1\nvalue = 0.7"] ;
326 -> 328 ;
329 [label="smv <= 28.79\nsquared_error = 0.0\nsamples = 5\nvalue = 0.701"] ;
325 -> 329 ;
330 [label="squared_error = 0.0\nsamples = 1\nvalue = 0.701"] ;
329 -> 330 ;
331 [label="	no_of_workers <= 59.5\nsquared_error = 0.0\nsamples = 4\nvalue = 0.701"] ;
329 -> 331 ;
332 [label="quarter_num <= 3.0\nsquared_error = 0.0\nsamples = 3\nvalue = 0.701"] ;
331 -> 332 ;
333 [label="squared_error = 0.0\nsamples = 1\nvalue = 0.701"] ;
332 -> 333 ;
334 [label="squared_error = 0.0\nsamples = 2\nvalue = 0.701"] ;
332 -> 334 ;
335 [label="squared_error = -0.0\nsamples = 1\nvalue = 0.701"] ;
331 -> 335 ;
336 [label="incentive <= 35.0\nsquared_error = 0.0\nsamples = 19\nvalue = 0.7"] ;
320 -> 336 ;
337 [label="over_time <= 5880.0\nsquared_error = 0.0\nsamples = 14\nvalue = 0.7"] ;
336 -> 337 ;
338 [label="day <= 2.5\nsquared_error = 0.0\nsamples = 8\nvalue = 0.7"] ;
337 -> 338 ;
339 [label="wip <= 2082.0\nsquared_error = 0.0\nsamples = 4\nvalue = 0.7"] ;
338 -> 339 ;
340 [label="no_of_style_change <= 0.5\nsquared_error = 0.0\nsamples = 3\nvalue = 0.7"] ;
339 -> 340 ;
341 [label="squared_error = 0.0\nsamples = 1\nvalue = 0.7"] ;
340 -> 341 ;
342 [label="team <= 7.5\nsquared_error = 0.0\nsamples = 2\nvalue = 0.7"] ;
340 -> 342 ;
343 [label="squared_error = 0.0\nsamples = 1\nvalue = 0.7"] ;
342 -> 343 ;
344 [label="squared_error = 0.0\nsamples = 1\nvalue = 0.7"] ;
342 -> 344 ;
345 [label="squared_error = -0.0\nsamples = 1\nvalue = 0.7"] ;
339 -> 345 ;
346 [label="day <= 5.0\nsquared_error = 0.0\nsamples = 4\nvalue = 0.7"] ;
338 -> 346 ;
347 [label="quarter_num <= 2.0\nsquared_error = 0.0\nsamples = 2\nvalue = 0.7"] ;
346 -> 347 ;
348 [label="squared_error = 0.0\nsamples = 1\nvalue = 0.7"] ;
347 -> 348 ;
349 [label="squared_error = 0.0\nsamples = 1\nvalue = 0.7"] ;
347 -> 349 ;
350 [label="no_of_style_change <= 0.5\nsquared_error = 0.0\nsamples = 2\nvalue = 0.7"] ;
346 -> 350 ;
351 [label="squared_error = 0.0\nsamples = 1\nvalue = 0.7"] ;
350 -> 351 ;
352 [label="squared_error = 0.0\nsamples = 1\nvalue = 0.7"] ;
350 -> 352 ;
353 [label="smv <= 29.94\nsquared_error = 0.0\nsamples = 6\nvalue = 0.7"] ;
337 -> 353 ;
354 [label="no_of_style_change <= 0.5\nsquared_error = 0.0\nsamples = 4\nvalue = 0.7"] ;
353 -> 354 ;
355 [label="squared_error = -0.0\nsamples = 3\nvalue = 0.7"] ;
354 -> 355 ;
356 [label="squared_error = 0.0\nsamples = 1\nvalue = 0.7"] ;
354 -> 356 ;
357 [label="squared_error = -0.0\nsamples = 2\nvalue = 0.701"] ;
353 -> 357 ;
358 [label="over_time <= 4980.0\nsquared_error = 0.0\nsamples = 5\nvalue = 0.7"] ;
336 -> 358 ;
359 [label="squared_error = 0.0\nsamples = 1\nvalue = 0.7"] ;
358 -> 359 ;
360 [label="wip <= 1037.0\nsquared_error = 0.0\nsamples = 4\nvalue = 0.7"] ;
358 -> 360 ;
361 [label="wip <= 979.5\nsquared_error = 0.0\nsamples = 2\nvalue = 0.7"] ;
360 -> 361 ;
362 [label="squared_error = 0.0\nsamples = 1\nvalue = 0.7"] ;
361 -> 362 ;
363 [label="squared_error = 0.0\nsamples = 1\nvalue = 0.7"] ;
361 -> 363 ;
364 [label="squared_error = -0.0\nsamples = 2\nvalue = 0.7"] ;
360 -> 364 ;
365 [label="squared_error = 0.0\nsamples = 1\nvalue = 0.721"] ;
319 -> 365 ;
366 [label="	no_of_workers <= 57.5\nsquared_error = 0.001\nsamples = 3\nvalue = 0.717"] ;
318 -> 366 ;
367 [label="squared_error = 0.0\nsamples = 1\nvalue = 0.751"] ;
366 -> 367 ;
368 [label="wip <= 1311.5\nsquared_error = 0.0\nsamples = 2\nvalue = 0.7"] ;
366 -> 368 ;
369 [label="squared_error = 0.0\nsamples = 1\nvalue = 0.701"] ;
368 -> 369 ;
370 [label="squared_error = 0.0\nsamples = 1\nvalue = 0.7"] ;
368 -> 370 ;
371 [label="wip <= 1060.0\nsquared_error = 0.001\nsamples = 4\nvalue = 0.682"] ;
313 -> 371 ;
372 [label="squared_error = 0.0\nsamples = 1\nvalue = 0.627"] ;
371 -> 372 ;
373 [label="over_time <= 6900.0\nsquared_error = 0.0\nsamples = 3\nvalue = 0.7"] ;
371 -> 373 ;
374 [label="wip <= 1112.5\nsquared_error = 0.0\nsamples = 2\nvalue = 0.701"] ;
373 -> 374 ;
375 [label="squared_error = 0.0\nsamples = 1\nvalue = 0.701"] ;
374 -> 375 ;
376 [label="squared_error = -0.0\nsamples = 1\nvalue = 0.701"] ;
374 -> 376 ;
377 [label="squared_error = 0.0\nsamples = 1\nvalue = 0.7"] ;
373 -> 377 ;
378 [label="wip <= 842.0\nsquared_error = 0.003\nsamples = 5\nvalue = 0.64"] ;
312 -> 378 ;
379 [label="day <= 1.5\nsquared_error = 0.0\nsamples = 2\nvalue = 0.574"] ;
378 -> 379 ;
380 [label="squared_error = 0.0\nsamples = 1\nvalue = 0.566"] ;
379 -> 380 ;
381 [label="squared_error = 0.0\nsamples = 1\nvalue = 0.582"] ;
379 -> 381 ;
382 [label="day <= 1.5\nsquared_error = 0.001\nsamples = 3\nvalue = 0.684"] ;
378 -> 382 ;
383 [label="squared_error = 0.0\nsamples = 1\nvalue = 0.65"] ;
382 -> 383 ;
384 [label="smv <= 13.335\nsquared_error = 0.0\nsamples = 2\nvalue = 0.701"] ;
382 -> 384 ;
385 [label="squared_error = 0.0\nsamples = 1\nvalue = 0.701"] ;
384 -> 385 ;
386 [label="squared_error = 0.0\nsamples = 1\nvalue = 0.7"] ;
384 -> 386 ;
387 [label="quarter_num <= 2.5\nsquared_error = 0.001\nsamples = 17\nvalue = 0.726"] ;
311 -> 387 ;
388 [label="quarter_num <= 1.5\nsquared_error = 0.0\nsamples = 4\nvalue = 0.76"] ;
387 -> 388 ;
389 [label="over_time <= 7020.0\nsquared_error = 0.0\nsamples = 3\nvalue = 0.75"] ;
388 -> 389 ;
390 [label="smv <= 26.74\nsquared_error = 0.0\nsamples = 2\nvalue = 0.751"] ;
389 -> 390 ;
391 [label="squared_error = 0.0\nsamples = 1\nvalue = 0.751"] ;
390 -> 391 ;
392 [label="squared_error = 0.0\nsamples = 1\nvalue = 0.751"] ;
390 -> 392 ;
393 [label="squared_error = -0.0\nsamples = 1\nvalue = 0.75"] ;
389 -> 393 ;
394 [label="squared_error = 0.0\nsamples = 1\nvalue = 0.79"] ;
388 -> 394 ;
395 [label="team <= 7.0\nsquared_error = 0.001\nsamples = 13\nvalue = 0.716"] ;
387 -> 395 ;
396 [label="day <= 3.5\nsquared_error = 0.001\nsamples = 8\nvalue = 0.725"] ;
395 -> 396 ;
397 [label="smv <= 26.52\nsquared_error = 0.001\nsamples = 6\nvalue = 0.734"] ;
396 -> 397 ;
398 [label="smv <= 21.46\nsquared_error = 0.0\nsamples = 5\nvalue = 0.74"] ;
397 -> 398 ;
399 [label="day <= 2.5\nsquared_error = 0.001\nsamples = 2\nvalue = 0.725"] ;
398 -> 399 ;
400 [label="squared_error = 0.0\nsamples = 1\nvalue = 0.7"] ;
399 -> 400 ;
401 [label="squared_error = -0.0\nsamples = 1\nvalue = 0.75"] ;
399 -> 401 ;
402 [label="day <= 1.5\nsquared_error = 0.0\nsamples = 3\nvalue = 0.75"] ;
398 -> 402 ;
403 [label="squared_error = 0.0\nsamples = 1\nvalue = 0.75"] ;
402 -> 403 ;
404 [label="smv <= 22.73\nsquared_error = 0.0\nsamples = 2\nvalue = 0.75"] ;
402 -> 404 ;
405 [label="squared_error = 0.0\nsamples = 1\nvalue = 0.75"] ;
404 -> 405 ;
406 [label="squared_error = -0.0\nsamples = 1\nvalue = 0.75"] ;
404 -> 406 ;
407 [label="squared_error = -0.0\nsamples = 1\nvalue = 0.701"] ;
397 -> 407 ;
408 [label="over_time <= 8700.0\nsquared_error = 0.0\nsamples = 2\nvalue = 0.7"] ;
396 -> 408 ;
409 [label="squared_error = 0.0\nsamples = 1\nvalue = 0.701"] ;
408 -> 409 ;
410 [label="squared_error = 0.0\nsamples = 1\nvalue = 0.7"] ;
408 -> 410 ;
411 [label="team <= 10.0\nsquared_error = 0.0\nsamples = 5\nvalue = 0.7"] ;
395 -> 411 ;
412 [label="squared_error = 0.0\nsamples = 1\nvalue = 0.7"] ;
411 -> 412 ;
413 [label="squared_error = -0.0\nsamples = 4\nvalue = 0.7"] ;
411 -> 413 ;
414 [label="	no_of_workers <= 55.0\nsquared_error = 0.002\nsamples = 20\nvalue = 0.769"] ;
310 -> 414 ;
415 [label="	no_of_workers <= 31.5\nsquared_error = 0.0\nsamples = 3\nvalue = 0.694"] ;
414 -> 415 ;
416 [label="squared_error = 0.0\nsamples = 1\nvalue = 0.682"] ;
415 -> 416 ;
417 [label="wip <= 1117.0\nsquared_error = 0.0\nsamples = 2\nvalue = 0.7"] ;
415 -> 417 ;
418 [label="squared_error = 0.0\nsamples = 1\nvalue = 0.7"] ;
417 -> 418 ;
419 [label="squared_error = 0.0\nsamples = 1\nvalue = 0.701"] ;
417 -> 419 ;
420 [label="	no_of_workers <= 57.5\nsquared_error = 0.001\nsamples = 17\nvalue = 0.783"] ;
414 -> 420 ;
421 [label="wip <= 1403.0\nsquared_error = 0.0\nsamples = 9\nvalue = 0.761"] ;
420 -> 421 ;
422 [label="incentive <= 69.0\nsquared_error = 0.0\nsamples = 8\nvalue = 0.756"] ;
421 -> 422 ;
423 [label="smv <= 22.73\nsquared_error = 0.0\nsamples = 7\nvalue = 0.75"] ;
422 -> 423 ;
424 [label="	no_of_workers <= 56.5\nsquared_error = 0.0\nsamples = 5\nvalue = 0.75"] ;
423 -> 424 ;
425 [label="squared_error = 0.0\nsamples = 1\nvalue = 0.75"] ;
424 -> 425 ;
426 [label="squared_error = -0.0\nsamples = 4\nvalue = 0.75"] ;
424 -> 426 ;
427 [label="over_time <= 9480.0\nsquared_error = 0.0\nsamples = 2\nvalue = 0.75"] ;
423 -> 427 ;
428 [label="squared_error = 0.0\nsamples = 1\nvalue = 0.75"] ;
427 -> 428 ;
429 [label="squared_error = 0.0\nsamples = 1\nvalue = 0.75"] ;
427 -> 429 ;
430 [label="squared_error = -0.0\nsamples = 1\nvalue = 0.8"] ;
422 -> 430 ;
431 [label="squared_error = -0.0\nsamples = 1\nvalue = 0.8"] ;
421 -> 431 ;
432 [label="day <= 3.5\nsquared_error = 0.001\nsamples = 8\nvalue = 0.807"] ;
420 -> 432 ;
433 [label="team <= 6.5\nsquared_error = 0.0\nsamples = 5\nvalue = 0.791"] ;
432 -> 433 ;
434 [label="incentive <= 61.5\nsquared_error = 0.0\nsamples = 4\nvalue = 0.801"] ;
433 -> 434 ;
435 [label="day <= 2.5\nsquared_error = 0.0\nsamples = 3\nvalue = 0.8"] ;
434 -> 435 ;
436 [label="day <= 1.5\nsquared_error = 0.0\nsamples = 2\nvalue = 0.8"] ;
435 -> 436 ;
437 [label="squared_error = 0.0\nsamples = 1\nvalue = 0.8"] ;
436 -> 437 ;
438 [label="squared_error = 0.0\nsamples = 1\nvalue = 0.801"] ;
436 -> 438 ;
439 [label="squared_error = -0.0\nsamples = 1\nvalue = 0.8"] ;
435 -> 439 ;
440 [label="squared_error = -0.0\nsamples = 1\nvalue = 0.802"] ;
434 -> 440 ;
441 [label="squared_error = 0.0\nsamples = 1\nvalue = 0.751"] ;
433 -> 441 ;
442 [label="team <= 6.5\nsquared_error = 0.001\nsamples = 3\nvalue = 0.834"] ;
432 -> 442 ;
443 [label="wip <= 1231.0\nsquared_error = 0.001\nsamples = 2\nvalue = 0.825"] ;
442 -> 443 ;
444 [label="squared_error = 0.0\nsamples = 1\nvalue = 0.801"] ;
443 -> 444 ;
445 [label="squared_error = 0.0\nsamples = 1\nvalue = 0.85"] ;
443 -> 445 ;
446 [label="squared_error = -0.0\nsamples = 1\nvalue = 0.85"] ;
442 -> 446 ;
447 [label="team <= 9.0\nsquared_error = 0.039\nsamples = 27\nvalue = 0.8"] ;
157 -> 447 ;
448 [label="over_time <= 8550.0\nsquared_error = 0.025\nsamples = 22\nvalue = 0.836"] ;
447 -> 448 ;
449 [label="smv <= 3.42\nsquared_error = 0.019\nsamples = 21\nvalue = 0.854"] ;
448 -> 449 ;
450 [label="squared_error = 0.0\nsamples = 1\nvalue = 0.495"] ;
449 -> 450 ;
451 [label="team <= 1.5\nsquared_error = 0.013\nsamples = 20\nvalue = 0.871"] ;
449 -> 451 ;
452 [label="squared_error = 0.0\nsamples = 1\nvalue = 0.578"] ;
451 -> 452 ;
453 [label="over_time <= 1320.0\nsquared_error = 0.009\nsamples = 19\nvalue = 0.887"] ;
451 -> 453 ;
454 [label="day <= 5.0\nsquared_error = 0.003\nsamples = 7\nvalue = 0.947"] ;
453 -> 454 ;
455 [label="targeted_productivity <= 0.675\nsquared_error = 0.003\nsamples = 3\nvalue = 0.9"] ;
454 -> 455 ;
456 [label="smv <= 4.045\nsquared_error = 0.0\nsamples = 2\nvalue = 0.862"] ;
455 -> 456 ;
457 [label="squared_error = 0.0\nsamples = 1\nvalue = 0.845"] ;
456 -> 457 ;
458 [label="squared_error = 0.0\nsamples = 1\nvalue = 0.878"] ;
456 -> 458 ;
459 [label="squared_error = -0.0\nsamples = 1\nvalue = 0.977"] ;
455 -> 459 ;
460 [label="smv <= 4.045\nsquared_error = 0.0\nsamples = 4\nvalue = 0.982"] ;
454 -> 460 ;
461 [label="squared_error = 0.0\nsamples = 3\nvalue = 0.972"] ;
460 -> 461 ;
462 [label="squared_error = -0.0\nsamples = 1\nvalue = 1.012"] ;
460 -> 462 ;
463 [label="over_time <= 2610.0\nsquared_error = 0.01\nsamples = 12\nvalue = 0.852"] ;
453 -> 463 ;
464 [label="day <= 1.5\nsquared_error = 0.005\nsamples = 8\nvalue = 0.798"] ;
463 -> 464 ;
465 [label="smv <= 4.045\nsquared_error = 0.007\nsamples = 2\nvalue = 0.728"] ;
464 -> 465 ;
466 [label="squared_error = 0.0\nsamples = 1\nvalue = 0.646"] ;
465 -> 466 ;
467 [label="squared_error = 0.0\nsamples = 1\nvalue = 0.81"] ;
465 -> 467 ;
468 [label="over_time <= 2280.0\nsquared_error = 0.003\nsamples = 6\nvalue = 0.821"] ;
464 -> 468 ;
469 [label="day <= 2.5\nsquared_error = 0.0\nsamples = 4\nvalue = 0.854"] ;
468 -> 469 ;
470 [label="squared_error = 0.0\nsamples = 1\nvalue = 0.821"] ;
469 -> 470 ;
471 [label="day <= 5.0\nsquared_error = 0.0\nsamples = 3\nvalue = 0.865"] ;
469 -> 471 ;
472 [label="	no_of_workers <= 11.5\nsquared_error = 0.0\nsamples = 2\nvalue = 0.863"] ;
471 -> 472 ;
473 [label="squared_error = 0.0\nsamples = 1\nvalue = 0.861"] ;
472 -> 473 ;
474 [label="squared_error = 0.0\nsamples = 1\nvalue = 0.865"] ;
472 -> 474 ;
475 [label="squared_error = 0.0\nsamples = 1\nvalue = 0.871"] ;
471 -> 475 ;
476 [label="over_time <= 2460.0\nsquared_error = 0.0\nsamples = 2\nvalue = 0.754"] ;
468 -> 476 ;
477 [label="squared_error = 0.0\nsamples = 1\nvalue = 0.758"] ;
476 -> 477 ;
478 [label="squared_error = -0.0\nsamples = 1\nvalue = 0.749"] ;
476 -> 478 ;
479 [label="over_time <= 5070.0\nsquared_error = 0.001\nsamples = 4\nvalue = 0.961"] ;
463 -> 479 ;
480 [label="quarter_num <= 3.5\nsquared_error = 0.0\nsamples = 3\nvalue = 0.977"] ;
479 -> 480 ;
481 [label="day <= 3.5\nsquared_error = 0.0\nsamples = 2\nvalue = 0.982"] ;
480 -> 481 ;
482 [label="squared_error = 0.0\nsamples = 1\nvalue = 0.977"] ;
481 -> 482 ;
483 [label="squared_error = 0.0\nsamples = 1\nvalue = 0.987"] ;
481 -> 483 ;
484 [label="squared_error = -0.0\nsamples = 1\nvalue = 0.967"] ;
480 -> 484 ;
485 [label="squared_error = -0.0\nsamples = 1\nvalue = 0.912"] ;
479 -> 485 ;
486 [label="squared_error = -0.0\nsamples = 1\nvalue = 0.461"] ;
448 -> 486 ;
487 [label="targeted_productivity <= 0.675\nsquared_error = 0.069\nsamples = 5\nvalue = 0.645"] ;
447 -> 487 ;
488 [label="over_time <= 780.0\nsquared_error = 0.012\nsamples = 3\nvalue = 0.839"] ;
487 -> 488 ;
489 [label="squared_error = 0.0\nsamples = 1\nvalue = 0.972"] ;
488 -> 489 ;
490 [label="day <= 5.5\nsquared_error = 0.004\nsamples = 2\nvalue = 0.772"] ;
488 -> 490 ;
491 [label="squared_error = 0.0\nsamples = 1\nvalue = 0.706"] ;
490 -> 491 ;
492 [label="squared_error = 0.0\nsamples = 1\nvalue = 0.838"] ;
490 -> 492 ;
493 [label="smv <= 4.045\nsquared_error = 0.014\nsamples = 2\nvalue = 0.353"] ;
487 -> 493 ;
494 [label="squared_error = 0.0\nsamples = 1\nvalue = 0.236"] ;
493 -> 494 ;
495 [label="squared_error = 0.0\nsamples = 1\nvalue = 0.471"] ;
493 -> 495 ;
496 [label="smv <= 3.4\nsquared_error = 0.022\nsamples = 445\nvalue = 0.786"] ;
0 -> 496 [labeldistance=2.5, labelangle=-45, headlabel="False"] ;
497 [label="	no_of_workers <= 8.5\nsquared_error = 0.026\nsamples = 45\nvalue = 0.648"] ;
496 -> 497 ;
498 [label="quarter_num <= 3.5\nsquared_error = 0.02\nsamples = 37\nvalue = 0.612"] ;
497 -> 498 ;
499 [label="over_time <= 2880.0\nsquared_error = 0.013\nsamples = 29\nvalue = 0.658"] ;
498 -> 499 ;
500 [label="targeted_productivity <= 0.775\nsquared_error = 0.009\nsamples = 28\nvalue = 0.671"] ;
499 -> 500 ;
501 [label="day <= 3.5\nsquared_error = 0.017\nsamples = 6\nvalue = 0.6"] ;
500 -> 501 ;
502 [label="quarter_num <= 1.5\nsquared_error = 0.009\nsamples = 3\nvalue = 0.697"] ;
501 -> 502 ;
503 [label="squared_error = 0.0\nsamples = 1\nvalue = 0.834"] ;
502 -> 503 ;
504 [label="squared_error = 0.0\nsamples = 2\nvalue = 0.628"] ;
502 -> 504 ;
505 [label="quarter_num <= 1.5\nsquared_error = 0.006\nsamples = 3\nvalue = 0.503"] ;
501 -> 505 ;
506 [label="day <= 5.5\nsquared_error = 0.0\nsamples = 2\nvalue = 0.45"] ;
505 -> 506 ;
507 [label="squared_error = 0.0\nsamples = 1\nvalue = 0.453"] ;
506 -> 507 ;
508 [label="squared_error = 0.0\nsamples = 1\nvalue = 0.447"] ;
506 -> 508 ;
509 [label="squared_error = 0.0\nsamples = 1\nvalue = 0.61"] ;
505 -> 509 ;
510 [label="team <= 6.5\nsquared_error = 0.005\nsamples = 22\nvalue = 0.69"] ;
500 -> 510 ;
511 [label="squared_error = 0.0\nsamples = 1\nvalue = 0.817"] ;
510 -> 511 ;
512 [label="quarter_num <= 2.5\nsquared_error = 0.004\nsamples = 21\nvalue = 0.684"] ;
510 -> 512 ;
513 [label="day <= 5.0\nsquared_error = 0.004\nsamples = 15\nvalue = 0.697"] ;
512 -> 513 ;
514 [label="day <= 1.5\nsquared_error = 0.004\nsamples = 9\nvalue = 0.721"] ;
513 -> 514 ;
515 [label="quarter_num <= 1.5\nsquared_error = 0.0\nsamples = 2\nvalue = 0.656"] ;
514 -> 515 ;
516 [label="squared_error = 0.0\nsamples = 1\nvalue = 0.665"] ;
515 -> 516 ;
517 [label="squared_error = 0.0\nsamples = 1\nvalue = 0.648"] ;
515 -> 517 ;
518 [label="team <= 7.5\nsquared_error = 0.003\nsamples = 7\nvalue = 0.74"] ;
514 -> 518 ;
519 [label="day <= 3.5\nsquared_error = 0.005\nsamples = 3\nvalue = 0.774"] ;
518 -> 519 ;
520 [label="quarter_num <= 1.5\nsquared_error = 0.0\nsamples = 2\nvalue = 0.821"] ;
519 -> 520 ;
521 [label="squared_error = 0.0\nsamples = 1\nvalue = 0.805"] ;
520 -> 521 ;
522 [label="squared_error = 0.0\nsamples = 1\nvalue = 0.838"] ;
520 -> 522 ;
523 [label="squared_error = 0.0\nsamples = 1\nvalue = 0.681"] ;
519 -> 523 ;
524 [label="quarter_num <= 1.5\nsquared_error = 0.001\nsamples = 4\nvalue = 0.714"] ;
518 -> 524 ;
525 [label="squared_error = 0.0\nsamples = 2\nvalue = 0.681"] ;
524 -> 525 ;
526 [label="department_finishing <= 0.5\nsquared_error = 0.0\nsamples = 2\nvalue = 0.747"] ;
524 -> 526 ;
527 [label="squared_error = 0.0\nsamples = 1\nvalue = 0.758"] ;
526 -> 527 ;
528 [label="squared_error = 0.0\nsamples = 1\nvalue = 0.736"] ;
526 -> 528 ;
529 [label="department_finishing <= 0.5\nsquared_error = 0.003\nsamples = 6\nvalue = 0.661"] ;
513 -> 529 ;
530 [label="day <= 6.5\nsquared_error = 0.002\nsamples = 2\nvalue = 0.706"] ;
529 -> 530 ;
531 [label="squared_error = 0.0\nsamples = 1\nvalue = 0.657"] ;
530 -> 531 ;
532 [label="squared_error = -0.0\nsamples = 1\nvalue = 0.755"] ;
530 -> 532 ;
533 [label="day <= 6.5\nsquared_error = 0.001\nsamples = 4\nvalue = 0.639"] ;
529 -> 533 ;
534 [label="team <= 7.5\nsquared_error = 0.0\nsamples = 2\nvalue = 0.649"] ;
533 -> 534 ;
535 [label="squared_error = 0.0\nsamples = 1\nvalue = 0.67"] ;
534 -> 535 ;
536 [label="squared_error = 0.0\nsamples = 1\nvalue = 0.628"] ;
534 -> 536 ;
537 [label="quarter_num <= 1.5\nsquared_error = 0.001\nsamples = 2\nvalue = 0.629"] ;
533 -> 537 ;
538 [label="squared_error = 0.0\nsamples = 1\nvalue = 0.668"] ;
537 -> 538 ;
539 [label="squared_error = -0.0\nsamples = 1\nvalue = 0.59"] ;
537 -> 539 ;
540 [label="team <= 7.5\nsquared_error = 0.002\nsamples = 6\nvalue = 0.651"] ;
512 -> 540 ;
541 [label="day <= 5.5\nsquared_error = 0.0\nsamples = 2\nvalue = 0.691"] ;
540 -> 541 ;
542 [label="squared_error = 0.0\nsamples = 1\nvalue = 0.689"] ;
541 -> 542 ;
543 [label="squared_error = 0.0\nsamples = 1\nvalue = 0.692"] ;
541 -> 543 ;
544 [label="day <= 2.5\nsquared_error = 0.001\nsamples = 4\nvalue = 0.631"] ;
540 -> 544 ;
545 [label="day <= 1.5\nsquared_error = 0.0\nsamples = 2\nvalue = 0.662"] ;
544 -> 545 ;
546 [label="squared_error = 0.0\nsamples = 1\nvalue = 0.684"] ;
545 -> 546 ;
547 [label="squared_error = -0.0\nsamples = 1\nvalue = 0.64"] ;
545 -> 547 ;
548 [label="day <= 3.5\nsquared_error = 0.0\nsamples = 2\nvalue = 0.601"] ;
544 -> 548 ;
549 [label="squared_error = 0.0\nsamples = 1\nvalue = 0.595"] ;
548 -> 549 ;
550 [label="squared_error = 0.0\nsamples = 1\nvalue = 0.607"] ;
548 -> 550 ;
551 [label="squared_error = -0.0\nsamples = 1\nvalue = 0.309"] ;
499 -> 551 ;
552 [label="team <= 7.0\nsquared_error = 0.012\nsamples = 8\nvalue = 0.442"] ;
498 -> 552 ;
553 [label="department_finishing <= 0.5\nsquared_error = 0.014\nsamples = 4\nvalue = 0.508"] ;
552 -> 553 ;
554 [label="day <= 2.0\nsquared_error = 0.0\nsamples = 2\nvalue = 0.391"] ;
553 -> 554 ;
555 [label="squared_error = 0.0\nsamples = 1\nvalue = 0.372"] ;
554 -> 555 ;
556 [label="squared_error = -0.0\nsamples = 1\nvalue = 0.411"] ;
554 -> 556 ;
557 [label="day <= 3.0\nsquared_error = 0.0\nsamples = 2\nvalue = 0.625"] ;
553 -> 557 ;
558 [label="squared_error = 0.0\nsamples = 1\nvalue = 0.622"] ;
557 -> 558 ;
559 [label="squared_error = -0.0\nsamples = 1\nvalue = 0.627"] ;
557 -> 559 ;
560 [label="	no_of_workers <= 6.0\nsquared_error = 0.001\nsamples = 4\nvalue = 0.377"] ;
552 -> 560 ;
561 [label="squared_error = 0.0\nsamples = 1\nvalue = 0.33"] ;
560 -> 561 ;
562 [label="day <= 2.5\nsquared_error = 0.0\nsamples = 3\nvalue = 0.392"] ;
560 -> 562 ;
563 [label="squared_error = 0.0\nsamples = 1\nvalue = 0.372"] ;
562 -> 563 ;
564 [label="day <= 5.0\nsquared_error = 0.0\nsamples = 2\nvalue = 0.403"] ;
562 -> 564 ;
565 [label="squared_error = 0.0\nsamples = 1\nvalue = 0.398"] ;
564 -> 565 ;
566 [label="squared_error = -0.0\nsamples = 1\nvalue = 0.408"] ;
564 -> 566 ;
567 [label="day <= 5.0\nsquared_error = 0.02\nsamples = 8\nvalue = 0.815"] ;
497 -> 567 ;
568 [label="over_time <= 1620.0\nsquared_error = 0.018\nsamples = 6\nvalue = 0.77"] ;
567 -> 568 ;
569 [label="incentive <= 1800.0\nsquared_error = 0.002\nsamples = 2\nvalue = 0.889"] ;
568 -> 569 ;
570 [label="squared_error = 0.0\nsamples = 1\nvalue = 0.937"] ;
569 -> 570 ;
571 [label="squared_error = 0.0\nsamples = 1\nvalue = 0.841"] ;
569 -> 571 ;
572 [label="day <= 2.5\nsquared_error = 0.015\nsamples = 4\nvalue = 0.71"] ;
568 -> 572 ;
573 [label="team <= 7.5\nsquared_error = 0.002\nsamples = 2\nvalue = 0.774"] ;
572 -> 573 ;
574 [label="squared_error = 0.0\nsamples = 1\nvalue = 0.727"] ;
573 -> 574 ;
575 [label="squared_error = 0.0\nsamples = 1\nvalue = 0.822"] ;
573 -> 575 ;
576 [label="team <= 7.5\nsquared_error = 0.02\nsamples = 2\nvalue = 0.646"] ;
572 -> 576 ;
577 [label="squared_error = 0.0\nsamples = 1\nvalue = 0.786"] ;
576 -> 577 ;
578 [label="squared_error = -0.0\nsamples = 1\nvalue = 0.506"] ;
576 -> 578 ;
579 [label="team <= 9.5\nsquared_error = 0.001\nsamples = 2\nvalue = 0.949"] ;
567 -> 579 ;
580 [label="squared_error = 0.0\nsamples = 1\nvalue = 0.911"] ;
579 -> 580 ;
581 [label="squared_error = 0.0\nsamples = 1\nvalue = 0.988"] ;
579 -> 581 ;
582 [label="incentive <= 84.5\nsquared_error = 0.019\nsamples = 400\nvalue = 0.802"] ;
496 -> 582 ;
583 [label="idle_men <= 17.5\nsquared_error = 0.019\nsamples = 367\nvalue = 0.789"] ;
582 -> 583 ;
584 [label="smv <= 30.25\nsquared_error = 0.017\nsamples = 362\nvalue = 0.793"] ;
583 -> 584 ;
585 [label="department_finishing <= 0.5\nsquared_error = 0.016\nsamples = 353\nvalue = 0.799"] ;
584 -> 585 ;
586 [label="	no_of_workers <= 8.5\nsquared_error = 0.012\nsamples = 265\nvalue = 0.785"] ;
585 -> 586 ;
587 [label="team <= 6.0\nsquared_error = 0.04\nsamples = 25\nvalue = 0.7"] ;
586 -> 587 ;
588 [label="smv <= 4.045\nsquared_error = 0.014\nsamples = 9\nvalue = 0.832"] ;
587 -> 588 ;
589 [label="quarter_num <= 2.5\nsquared_error = 0.012\nsamples = 5\nvalue = 0.904"] ;
588 -> 589 ;
590 [label="over_time <= 1440.0\nsquared_error = 0.001\nsamples = 4\nvalue = 0.853"] ;
589 -> 590 ;
591 [label="squared_error = 0.0\nsamples = 2\nvalue = 0.891"] ;
590 -> 591 ;
592 [label="smv <= 3.92\nsquared_error = 0.0\nsamples = 2\nvalue = 0.816"] ;
590 -> 592 ;
593 [label="squared_error = 0.0\nsamples = 1\nvalue = 0.819"] ;
592 -> 593 ;
594 [label="squared_error = -0.0\nsamples = 1\nvalue = 0.813"] ;
592 -> 594 ;
595 [label="squared_error = -0.0\nsamples = 1\nvalue = 1.108"] ;
589 -> 595 ;
596 [label="smv <= 4.865\nsquared_error = 0.001\nsamples = 4\nvalue = 0.742"] ;
588 -> 596 ;
597 [label="smv <= 4.375\nsquared_error = 0.0\nsamples = 2\nvalue = 0.774"] ;
596 -> 597 ;
598 [label="squared_error = 0.0\nsamples = 1\nvalue = 0.761"] ;
597 -> 598 ;
599 [label="squared_error = -0.0\nsamples = 1\nvalue = 0.787"] ;
597 -> 599 ;
600 [label="day <= 3.5\nsquared_error = 0.001\nsamples = 2\nvalue = 0.709"] ;
596 -> 600 ;
601 [label="squared_error = 0.0\nsamples = 1\nvalue = 0.735"] ;
600 -> 601 ;
602 [label="squared_error = -0.0\nsamples = 1\nvalue = 0.684"] ;
600 -> 602 ;
603 [label="day <= 5.0\nsquared_error = 0.039\nsamples = 16\nvalue = 0.626"] ;
587 -> 603 ;
604 [label="quarter_num <= 1.5\nsquared_error = 0.015\nsamples = 10\nvalue = 0.728"] ;
603 -> 604 ;
605 [label="team <= 8.5\nsquared_error = 0.005\nsamples = 4\nvalue = 0.808"] ;
604 -> 605 ;
606 [label="over_time <= 2160.0\nsquared_error = 0.006\nsamples = 2\nvalue = 0.852"] ;
605 -> 606 ;
607 [label="squared_error = 0.0\nsamples = 1\nvalue = 0.93"] ;
606 -> 607 ;
608 [label="squared_error = 0.0\nsamples = 1\nvalue = 0.773"] ;
606 -> 608 ;
609 [label="day <= 3.5\nsquared_error = 0.0\nsamples = 2\nvalue = 0.763"] ;
605 -> 609 ;
610 [label="squared_error = 0.0\nsamples = 1\nvalue = 0.755"] ;
609 -> 610 ;
611 [label="squared_error = 0.0\nsamples = 1\nvalue = 0.772"] ;
609 -> 611 ;
612 [label="team <= 9.5\nsquared_error = 0.015\nsamples = 6\nvalue = 0.675"] ;
604 -> 612 ;
613 [label="day <= 1.5\nsquared_error = 0.004\nsamples = 4\nvalue = 0.621"] ;
612 -> 613 ;
614 [label="squared_error = 0.0\nsamples = 1\nvalue = 0.698"] ;
613 -> 614 ;
615 [label="day <= 3.5\nsquared_error = 0.002\nsamples = 3\nvalue = 0.595"] ;
613 -> 615 ;
616 [label="quarter_num <= 2.5\nsquared_error = 0.0\nsamples = 2\nvalue = 0.564"] ;
615 -> 616 ;
617 [label="squared_error = 0.0\nsamples = 1\nvalue = 0.542"] ;
616 -> 617 ;
618 [label="squared_error = 0.0\nsamples = 1\nvalue = 0.586"] ;
616 -> 618 ;
619 [label="squared_error = -0.0\nsamples = 1\nvalue = 0.657"] ;
615 -> 619 ;
620 [label="day <= 2.5\nsquared_error = 0.021\nsamples = 2\nvalue = 0.784"] ;
612 -> 620 ;
621 [label="squared_error = 0.0\nsamples = 1\nvalue = 0.928"] ;
620 -> 621 ;
622 [label="squared_error = 0.0\nsamples = 1\nvalue = 0.64"] ;
620 -> 622 ;
623 [label="quarter_num <= 1.5\nsquared_error = 0.032\nsamples = 6\nvalue = 0.455"] ;
603 -> 623 ;
624 [label="team <= 8.0\nsquared_error = 0.044\nsamples = 2\nvalue = 0.561"] ;
623 -> 624 ;
625 [label="squared_error = 0.0\nsamples = 1\nvalue = 0.35"] ;
624 -> 625 ;
626 [label="squared_error = 0.0\nsamples = 1\nvalue = 0.772"] ;
624 -> 626 ;
627 [label="day <= 6.5\nsquared_error = 0.017\nsamples = 4\nvalue = 0.402"] ;
623 -> 627 ;
628 [label="quarter_num <= 3.0\nsquared_error = 0.005\nsamples = 2\nvalue = 0.307"] ;
627 -> 628 ;
629 [label="squared_error = 0.0\nsamples = 1\nvalue = 0.238"] ;
628 -> 629 ;
630 [label="squared_error = 0.0\nsamples = 1\nvalue = 0.377"] ;
628 -> 630 ;
631 [label="quarter_num <= 3.0\nsquared_error = 0.012\nsamples = 2\nvalue = 0.497"] ;
627 -> 631 ;
632 [label="squared_error = 0.0\nsamples = 1\nvalue = 0.607"] ;
631 -> 632 ;
633 [label="squared_error = -0.0\nsamples = 1\nvalue = 0.386"] ;
631 -> 633 ;
634 [label="targeted_productivity <= 0.775\nsquared_error = 0.008\nsamples = 240\nvalue = 0.794"] ;
586 -> 634 ;
635 [label="incentive <= 50.0\nsquared_error = 0.005\nsamples = 58\nvalue = 0.753"] ;
634 -> 635 ;
636 [label="incentive <= 17.0\nsquared_error = 0.005\nsamples = 48\nvalue = 0.739"] ;
635 -> 636 ;
637 [label="quarter_num <= 1.5\nsquared_error = 0.031\nsamples = 6\nvalue = 0.668"] ;
636 -> 637 ;
638 [label="squared_error = 0.0\nsamples = 1\nvalue = 0.332"] ;
637 -> 638 ;
639 [label="quarter_num <= 2.5\nsquared_error = 0.01\nsamples = 5\nvalue = 0.735"] ;
637 -> 639 ;
640 [label="squared_error = 0.0\nsamples = 1\nvalue = 0.903"] ;
639 -> 640 ;
641 [label="day <= 4.0\nsquared_error = 0.004\nsamples = 4\nvalue = 0.693"] ;
639 -> 641 ;
642 [label="no_of_style_change <= 1.0\nsquared_error = 0.0\nsamples = 2\nvalue = 0.75"] ;
641 -> 642 ;
643 [label="squared_error = 0.0\nsamples = 1\nvalue = 0.751"] ;
642 -> 643 ;
644 [label="squared_error = 0.0\nsamples = 1\nvalue = 0.75"] ;
642 -> 644 ;
645 [label="quarter_num <= 3.5\nsquared_error = 0.001\nsamples = 2\nvalue = 0.635"] ;
641 -> 645 ;
646 [label="squared_error = 0.0\nsamples = 1\nvalue = 0.599"] ;
645 -> 646 ;
647 [label="squared_error = 0.0\nsamples = 1\nvalue = 0.672"] ;
645 -> 647 ;
648 [label="wip <= 584.0\nsquared_error = 0.0\nsamples = 42\nvalue = 0.75"] ;
636 -> 648 ;
649 [label="day <= 3.5\nsquared_error = 0.0\nsamples = 6\nvalue = 0.744"] ;
648 -> 649 ;
650 [label="	no_of_workers <= 53.0\nsquared_error = 0.0\nsamples = 5\nvalue = 0.75"] ;
649 -> 650 ;
651 [label="over_time <= 4080.0\nsquared_error = 0.0\nsamples = 2\nvalue = 0.75"] ;
650 -> 651 ;
652 [label="squared_error = 0.0\nsamples = 1\nvalue = 0.75"] ;
651 -> 652 ;
653 [label="squared_error = 0.0\nsamples = 1\nvalue = 0.75"] ;
651 -> 653 ;
654 [label="team <= 9.5\nsquared_error = 0.0\nsamples = 3\nvalue = 0.751"] ;
650 -> 654 ;
655 [label="no_of_style_change <= 0.5\nsquared_error = 0.0\nsamples = 2\nvalue = 0.751"] ;
654 -> 655 ;
656 [label="squared_error = 0.0\nsamples = 1\nvalue = 0.75"] ;
655 -> 656 ;
657 [label="squared_error = 0.0\nsamples = 1\nvalue = 0.751"] ;
655 -> 657 ;
658 [label="squared_error = -0.0\nsamples = 1\nvalue = 0.751"] ;
654 -> 658 ;
659 [label="squared_error = 0.0\nsamples = 1\nvalue = 0.712"] ;
649 -> 659 ;
660 [label="over_time <= 7050.0\nsquared_error = 0.0\nsamples = 36\nvalue = 0.75"] ;
648 -> 660 ;
661 [label="	no_of_workers <= 50.5\nsquared_error = 0.0\nsamples = 32\nvalue = 0.75"] ;
660 -> 661 ;
662 [label="smv <= 17.025\nsquared_error = 0.0\nsamples = 14\nvalue = 0.751"] ;
661 -> 662 ;
663 [label="quarter_num <= 4.5\nsquared_error = 0.0\nsamples = 5\nvalue = 0.75"] ;
662 -> 663 ;
664 [label="over_time <= 2880.0\nsquared_error = 0.0\nsamples = 4\nvalue = 0.75"] ;
663 -> 664 ;
665 [label="smv <= 12.655\nsquared_error = 0.0\nsamples = 2\nvalue = 0.75"] ;
664 -> 665 ;
666 [label="squared_error = 0.0\nsamples = 1\nvalue = 0.75"] ;
665 -> 666 ;
667 [label="squared_error = -0.0\nsamples = 1\nvalue = 0.75"] ;
665 -> 667 ;
668 [label="day <= 4.5\nsquared_error = 0.0\nsamples = 2\nvalue = 0.75"] ;
664 -> 668 ;
669 [label="squared_error = 0.0\nsamples = 1\nvalue = 0.75"] ;
668 -> 669 ;
670 [label="squared_error = 0.0\nsamples = 1\nvalue = 0.75"] ;
668 -> 670 ;
671 [label="squared_error = 0.0\nsamples = 1\nvalue = 0.751"] ;
663 -> 671 ;
672 [label="day <= 1.5\nsquared_error = 0.0\nsamples = 9\nvalue = 0.751"] ;
662 -> 672 ;
673 [label="squared_error = 0.0\nsamples = 1\nvalue = 0.751"] ;
672 -> 673 ;
674 [label="team <= 8.0\nsquared_error = 0.0\nsamples = 8\nvalue = 0.751"] ;
672 -> 674 ;
675 [label="squared_error = -0.0\nsamples = 6\nvalue = 0.751"] ;
674 -> 675 ;
676 [label="squared_error = 0.0\nsamples = 2\nvalue = 0.751"] ;
674 -> 676 ;
677 [label="	no_of_workers <= 51.5\nsquared_error = 0.0\nsamples = 18\nvalue = 0.75"] ;
661 -> 677 ;
678 [label="squared_error = 0.0\nsamples = 1\nvalue = 0.75"] ;
677 -> 678 ;
679 [label="over_time <= 4890.0\nsquared_error = 0.0\nsamples = 17\nvalue = 0.75"] ;
677 -> 679 ;
680 [label="over_time <= 3900.0\nsquared_error = 0.0\nsamples = 3\nvalue = 0.751"] ;
679 -> 680 ;
681 [label="wip <= 666.5\nsquared_error = 0.0\nsamples = 2\nvalue = 0.75"] ;
680 -> 681 ;
682 [label="squared_error = 0.0\nsamples = 1\nvalue = 0.751"] ;
681 -> 682 ;
683 [label="squared_error = -0.0\nsamples = 1\nvalue = 0.75"] ;
681 -> 683 ;
684 [label="squared_error = -0.0\nsamples = 1\nvalue = 0.751"] ;
680 -> 684 ;
685 [label="team <= 6.0\nsquared_error = 0.0\nsamples = 14\nvalue = 0.75"] ;
679 -> 685 ;
686 [label="over_time <= 6720.0\nsquared_error = 0.0\nsamples = 7\nvalue = 0.75"] ;
685 -> 686 ;
687 [label="quarter_num <= 2.5\nsquared_error = 0.0\nsamples = 4\nvalue = 0.75"] ;
686 -> 687 ;
688 [label="squared_error = 0.0\nsamples = 3\nvalue = 0.75"] ;
687 -> 688 ;
689 [label="squared_error = 0.0\nsamples = 1\nvalue = 0.75"] ;
687 -> 689 ;
690 [label="wip <= 1263.5\nsquared_error = 0.0\nsamples = 3\nvalue = 0.75"] ;
686 -> 690 ;
691 [label="team <= 4.0\nsquared_error = 0.0\nsamples = 2\nvalue = 0.75"] ;
690 -> 691 ;
692 [label="squared_error = 0.0\nsamples = 1\nvalue = 0.75"] ;
691 -> 692 ;
693 [label="squared_error = 0.0\nsamples = 1\nvalue = 0.75"] ;
691 -> 693 ;
694 [label="squared_error = 0.0\nsamples = 1\nvalue = 0.75"] ;
690 -> 694 ;
695 [label="	no_of_workers <= 55.0\nsquared_error = 0.0\nsamples = 7\nvalue = 0.75"] ;
685 -> 695 ;
696 [label="over_time <= 5940.0\nsquared_error = 0.0\nsamples = 5\nvalue = 0.75"] ;
695 -> 696 ;
697 [label="squared_error = 0.0\nsamples = 1\nvalue = 0.75"] ;
696 -> 697 ;
698 [label="squared_error = 0.0\nsamples = 4\nvalue = 0.75"] ;
696 -> 698 ;
699 [label="no_of_style_change <= 0.5\nsquared_error = 0.0\nsamples = 2\nvalue = 0.751"] ;
695 -> 699 ;
700 [label="squared_error = 0.0\nsamples = 1\nvalue = 0.751"] ;
699 -> 700 ;
701 [label="squared_error = 0.0\nsamples = 1\nvalue = 0.751"] ;
699 -> 701 ;
702 [label="day <= 4.5\nsquared_error = 0.0\nsamples = 4\nvalue = 0.75"] ;
660 -> 702 ;
703 [label="wip <= 822.0\nsquared_error = 0.0\nsamples = 3\nvalue = 0.75"] ;
702 -> 703 ;
704 [label="squared_error = 0.0\nsamples = 1\nvalue = 0.75"] ;
703 -> 704 ;
705 [label="squared_error = 0.0\nsamples = 2\nvalue = 0.75"] ;
703 -> 705 ;
706 [label="squared_error = -0.0\nsamples = 1\nvalue = 0.75"] ;
702 -> 706 ;
707 [label="	no_of_workers <= 54.0\nsquared_error = 0.004\nsamples = 10\nvalue = 0.817"] ;
635 -> 707 ;
708 [label="squared_error = 0.0\nsamples = 1\nvalue = 0.971"] ;
707 -> 708 ;
709 [label="smv <= 28.11\nsquared_error = 0.002\nsamples = 9\nvalue = 0.8"] ;
707 -> 709 ;
710 [label="	no_of_workers <= 57.5\nsquared_error = 0.001\nsamples = 6\nvalue = 0.825"] ;
709 -> 710 ;
711 [label="team <= 6.0\nsquared_error = 0.0\nsamples = 3\nvalue = 0.8"] ;
710 -> 711 ;
712 [label="squared_error = 0.0\nsamples = 1\nvalue = 0.8"] ;
711 -> 712 ;
713 [label="squared_error = -0.0\nsamples = 2\nvalue = 0.8"] ;
711 -> 713 ;
714 [label="over_time <= 6420.0\nsquared_error = 0.0\nsamples = 3\nvalue = 0.85"] ;
710 -> 714 ;
715 [label="squared_error = 0.0\nsamples = 1\nvalue = 0.85"] ;
714 -> 715 ;
716 [label="	no_of_workers <= 58.5\nsquared_error = 0.0\nsamples = 2\nvalue = 0.85"] ;
714 -> 716 ;
717 [label="squared_error = 0.0\nsamples = 1\nvalue = 0.85"] ;
716 -> 717 ;
718 [label="squared_error = -0.0\nsamples = 1\nvalue = 0.85"] ;
716 -> 718 ;
719 [label="wip <= 661.0\nsquared_error = 0.0\nsamples = 3\nvalue = 0.75"] ;
709 -> 719 ;
720 [label="squared_error = 0.0\nsamples = 1\nvalue = 0.75"] ;
719 -> 720 ;
721 [label="day <= 4.5\nsquared_error = 0.0\nsamples = 2\nvalue = 0.75"] ;
719 -> 721 ;
722 [label="squared_error = 0.0\nsamples = 1\nvalue = 0.75"] ;
721 -> 722 ;
723 [label="squared_error = 0.0\nsamples = 1\nvalue = 0.75"] ;
721 -> 723 ;
724 [label="over_time <= 3120.0\nsquared_error = 0.008\nsamples = 182\nvalue = 0.807"] ;
634 -> 724 ;
725 [label="over_time <= 2985.0\nsquared_error = 0.015\nsamples = 46\nvalue = 0.836"] ;
724 -> 725 ;
726 [label="day <= 1.5\nsquared_error = 0.014\nsamples = 45\nvalue = 0.831"] ;
725 -> 726 ;
727 [label="team <= 11.5\nsquared_error = 0.052\nsamples = 6\nvalue = 0.767"] ;
726 -> 727 ;
728 [label="over_time <= 180.0\nsquared_error = 0.004\nsamples = 5\nvalue = 0.866"] ;
727 -> 728 ;
729 [label="smv <= 20.855\nsquared_error = 0.0\nsamples = 2\nvalue = 0.801"] ;
728 -> 729 ;
730 [label="squared_error = 0.0\nsamples = 1\nvalue = 0.8"] ;
729 -> 730 ;
731 [label="squared_error = 0.0\nsamples = 1\nvalue = 0.801"] ;
729 -> 731 ;
732 [label="over_time <= 2280.0\nsquared_error = 0.001\nsamples = 3\nvalue = 0.909"] ;
728 -> 732 ;
733 [label="quarter_num <= 3.0\nsquared_error = 0.0\nsamples = 2\nvalue = 0.886"] ;
732 -> 733 ;
734 [label="squared_error = 0.0\nsamples = 1\nvalue = 0.9"] ;
733 -> 734 ;
735 [label="squared_error = 0.0\nsamples = 1\nvalue = 0.871"] ;
733 -> 735 ;
736 [label="squared_error = -0.0\nsamples = 1\nvalue = 0.956"] ;
732 -> 736 ;
737 [label="squared_error = -0.0\nsamples = 1\nvalue = 0.272"] ;
727 -> 737 ;
738 [label="over_time <= 1320.0\nsquared_error = 0.008\nsamples = 39\nvalue = 0.841"] ;
726 -> 738 ;
739 [label="	no_of_workers <= 33.0\nsquared_error = 0.004\nsamples = 18\nvalue = 0.881"] ;
738 -> 739 ;
740 [label="day <= 5.0\nsquared_error = 0.003\nsamples = 13\nvalue = 0.909"] ;
739 -> 740 ;
741 [label="quarter_num <= 1.5\nsquared_error = 0.002\nsamples = 8\nvalue = 0.932"] ;
740 -> 741 ;
742 [label="	no_of_workers <= 9.5\nsquared_error = 0.0\nsamples = 3\nvalue = 0.907"] ;
741 -> 742 ;
743 [label="smv <= 4.34\nsquared_error = 0.0\nsamples = 2\nvalue = 0.896"] ;
742 -> 743 ;
744 [label="squared_error = 0.0\nsamples = 1\nvalue = 0.907"] ;
743 -> 744 ;
745 [label="squared_error = 0.0\nsamples = 1\nvalue = 0.886"] ;
743 -> 745 ;
746 [label="squared_error = -0.0\nsamples = 1\nvalue = 0.929"] ;
742 -> 746 ;
747 [label="smv <= 4.34\nsquared_error = 0.002\nsamples = 5\nvalue = 0.947"] ;
741 -> 747 ;
748 [label="squared_error = 0.0\nsamples = 1\nvalue = 1.02"] ;
747 -> 748 ;
749 [label="over_time <= 1140.0\nsquared_error = 0.001\nsamples = 4\nvalue = 0.929"] ;
747 -> 749 ;
750 [label="quarter_num <= 2.5\nsquared_error = 0.0\nsamples = 3\nvalue = 0.908"] ;
749 -> 750 ;
751 [label="squared_error = 0.0\nsamples = 1\nvalue = 0.92"] ;
750 -> 751 ;
752 [label="day <= 2.5\nsquared_error = 0.0\nsamples = 2\nvalue = 0.903"] ;
750 -> 752 ;
753 [label="squared_error = 0.0\nsamples = 1\nvalue = 0.902"] ;
752 -> 753 ;
754 [label="squared_error = 0.0\nsamples = 1\nvalue = 0.903"] ;
752 -> 754 ;
755 [label="squared_error = -0.0\nsamples = 1\nvalue = 0.992"] ;
749 -> 755 ;
756 [label="day <= 6.5\nsquared_error = 0.001\nsamples = 5\nvalue = 0.871"] ;
740 -> 756 ;
757 [label="quarter_num <= 1.5\nsquared_error = 0.002\nsamples = 3\nvalue = 0.857"] ;
756 -> 757 ;
758 [label="smv <= 4.01\nsquared_error = 0.0\nsamples = 2\nvalue = 0.885"] ;
757 -> 758 ;
759 [label="squared_error = 0.0\nsamples = 1\nvalue = 0.87"] ;
758 -> 759 ;
760 [label="squared_error = -0.0\nsamples = 1\nvalue = 0.899"] ;
758 -> 760 ;
761 [label="squared_error = 0.0\nsamples = 1\nvalue = 0.801"] ;
757 -> 761 ;
762 [label="team <= 6.5\nsquared_error = 0.0\nsamples = 2\nvalue = 0.892"] ;
756 -> 762 ;
763 [label="squared_error = 0.0\nsamples = 1\nvalue = 0.893"] ;
762 -> 763 ;
764 [label="squared_error = 0.0\nsamples = 1\nvalue = 0.892"] ;
762 -> 764 ;
765 [label="incentive <= 69.0\nsquared_error = 0.0\nsamples = 5\nvalue = 0.81"] ;
739 -> 765 ;
766 [label="over_time <= 300.0\nsquared_error = 0.0\nsamples = 4\nvalue = 0.8"] ;
765 -> 766 ;
767 [label="quarter_num <= 2.0\nsquared_error = 0.0\nsamples = 2\nvalue = 0.801"] ;
766 -> 767 ;
768 [label="squared_error = 0.0\nsamples = 1\nvalue = 0.801"] ;
767 -> 768 ;
769 [label="squared_error = -0.0\nsamples = 1\nvalue = 0.801"] ;
767 -> 769 ;
770 [label="squared_error = 0.0\nsamples = 2\nvalue = 0.8"] ;
766 -> 770 ;
771 [label="squared_error = -0.0\nsamples = 1\nvalue = 0.85"] ;
765 -> 771 ;
772 [label="	no_of_workers <= 13.5\nsquared_error = 0.008\nsamples = 21\nvalue = 0.806"] ;
738 -> 772 ;
773 [label="smv <= 4.865\nsquared_error = 0.011\nsamples = 8\nvalue = 0.745"] ;
772 -> 773 ;
774 [label="smv <= 4.27\nsquared_error = 0.009\nsamples = 7\nvalue = 0.764"] ;
773 -> 774 ;
775 [label="quarter_num <= 1.5\nsquared_error = 0.006\nsamples = 5\nvalue = 0.723"] ;
774 -> 775 ;
776 [label="squared_error = 0.0\nsamples = 1\nvalue = 0.845"] ;
775 -> 776 ;
777 [label="over_time <= 1920.0\nsquared_error = 0.003\nsamples = 4\nvalue = 0.693"] ;
775 -> 777 ;
778 [label="day <= 3.5\nsquared_error = 0.001\nsamples = 2\nvalue = 0.642"] ;
777 -> 778 ;
779 [label="squared_error = 0.0\nsamples = 1\nvalue = 0.618"] ;
778 -> 779 ;
780 [label="squared_error = 0.0\nsamples = 1\nvalue = 0.665"] ;
778 -> 780 ;
781 [label="team <= 9.5\nsquared_error = 0.0\nsamples = 2\nvalue = 0.743"] ;
777 -> 781 ;
782 [label="squared_error = 0.0\nsamples = 1\nvalue = 0.754"] ;
781 -> 782 ;
783 [label="squared_error = -0.0\nsamples = 1\nvalue = 0.733"] ;
781 -> 783 ;
784 [label="day <= 2.5\nsquared_error = 0.003\nsamples = 2\nvalue = 0.867"] ;
774 -> 784 ;
785 [label="squared_error = 0.0\nsamples = 1\nvalue = 0.811"] ;
784 -> 785 ;
786 [label="squared_error = -0.0\nsamples = 1\nvalue = 0.923"] ;
784 -> 786 ;
787 [label="squared_error = 0.0\nsamples = 1\nvalue = 0.61"] ;
773 -> 787 ;
788 [label="department <= 1.5\nsquared_error = 0.003\nsamples = 13\nvalue = 0.844"] ;
772 -> 788 ;
789 [label="day <= 3.5\nsquared_error = 0.002\nsamples = 6\nvalue = 0.894"] ;
788 -> 789 ;
790 [label="quarter_num <= 1.5\nsquared_error = 0.001\nsamples = 4\nvalue = 0.92"] ;
789 -> 790 ;
791 [label="squared_error = 0.0\nsamples = 1\nvalue = 0.967"] ;
790 -> 791 ;
792 [label="team <= 2.5\nsquared_error = 0.0\nsamples = 3\nvalue = 0.904"] ;
790 -> 792 ;
793 [label="squared_error = 0.0\nsamples = 1\nvalue = 0.912"] ;
792 -> 793 ;
794 [label="	no_of_workers <= 17.5\nsquared_error = 0.0\nsamples = 2\nvalue = 0.9"] ;
792 -> 794 ;
795 [label="squared_error = 0.0\nsamples = 1\nvalue = 0.9"] ;
794 -> 795 ;
796 [label="squared_error = -0.0\nsamples = 1\nvalue = 0.901"] ;
794 -> 796 ;
797 [label="day <= 5.5\nsquared_error = 0.001\nsamples = 2\nvalue = 0.843"] ;
789 -> 797 ;
798 [label="squared_error = 0.0\nsamples = 1\nvalue = 0.81"] ;
797 -> 798 ;
799 [label="squared_error = -0.0\nsamples = 1\nvalue = 0.876"] ;
797 -> 799 ;
800 [label="over_time <= 1570.0\nsquared_error = 0.0\nsamples = 7\nvalue = 0.8"] ;
788 -> 800 ;
801 [label="squared_error = 0.0\nsamples = 1\nvalue = 0.801"] ;
800 -> 801 ;
802 [label="team <= 10.0\nsquared_error = 0.0\nsamples = 6\nvalue = 0.8"] ;
800 -> 802 ;
803 [label="squared_error = 0.0\nsamples = 1\nvalue = 0.801"] ;
802 -> 803 ;
804 [label="no_of_style_change <= 1.0\nsquared_error = 0.0\nsamples = 5\nvalue = 0.8"] ;
802 -> 804 ;
805 [label="over_time <= 2460.0\nsquared_error = 0.0\nsamples = 4\nvalue = 0.8"] ;
804 -> 805 ;
806 [label="day <= 4.0\nsquared_error = 0.0\nsamples = 2\nvalue = 0.8"] ;
805 -> 806 ;
807 [label="squared_error = 0.0\nsamples = 1\nvalue = 0.8"] ;
806 -> 807 ;
808 [label="squared_error = 0.0\nsamples = 1\nvalue = 0.8"] ;
806 -> 808 ;
809 [label="wip <= 1092.5\nsquared_error = 0.0\nsamples = 2\nvalue = 0.8"] ;
805 -> 809 ;
810 [label="squared_error = 0.0\nsamples = 1\nvalue = 0.8"] ;
809 -> 810 ;
811 [label="squared_error = -0.0\nsamples = 1\nvalue = 0.8"] ;
809 -> 811 ;
812 [label="squared_error = -0.0\nsamples = 1\nvalue = 0.801"] ;
804 -> 812 ;
813 [label="squared_error = 0.0\nsamples = 1\nvalue = 1.051"] ;
725 -> 813 ;
814 [label="	no_of_workers <= 9.5\nsquared_error = 0.005\nsamples = 136\nvalue = 0.797"] ;
724 -> 814 ;
815 [label="quarter_num <= 2.5\nsquared_error = 0.0\nsamples = 3\nvalue = 0.606"] ;
814 -> 815 ;
816 [label="squared_error = 0.0\nsamples = 1\nvalue = 0.636"] ;
815 -> 816 ;
817 [label="squared_error = 0.0\nsamples = 2\nvalue = 0.591"] ;
815 -> 817 ;
818 [label="smv <= 4.865\nsquared_error = 0.004\nsamples = 133\nvalue = 0.801"] ;
814 -> 818 ;
819 [label="over_time <= 3900.0\nsquared_error = 0.013\nsamples = 8\nvalue = 0.882"] ;
818 -> 819 ;
820 [label="squared_error = 0.0\nsamples = 1\nvalue = 0.591"] ;
819 -> 820 ;
821 [label="team <= 6.0\nsquared_error = 0.001\nsamples = 7\nvalue = 0.923"] ;
819 -> 821 ;
822 [label="day <= 1.5\nsquared_error = 0.001\nsamples = 6\nvalue = 0.911"] ;
821 -> 822 ;
823 [label="squared_error = 0.0\nsamples = 1\nvalue = 0.86"] ;
822 -> 823 ;
824 [label="day <= 3.0\nsquared_error = 0.0\nsamples = 5\nvalue = 0.921"] ;
822 -> 824 ;
825 [label="squared_error = 0.0\nsamples = 1\nvalue = 0.903"] ;
824 -> 825 ;
826 [label="quarter_num <= 2.5\nsquared_error = 0.0\nsamples = 4\nvalue = 0.925"] ;
824 -> 826 ;
827 [label="squared_error = 0.0\nsamples = 1\nvalue = 0.936"] ;
826 -> 827 ;
828 [label="team <= 4.0\nsquared_error = 0.0\nsamples = 3\nvalue = 0.922"] ;
826 -> 828 ;
829 [label="squared_error = 0.0\nsamples = 1\nvalue = 0.922"] ;
828 -> 829 ;
830 [label="squared_error = 0.0\nsamples = 2\nvalue = 0.922"] ;
828 -> 830 ;
831 [label="squared_error = -0.0\nsamples = 1\nvalue = 1.0"] ;
821 -> 831 ;
832 [label="incentive <= 17.0\nsquared_error = 0.003\nsamples = 125\nvalue = 0.796"] ;
818 -> 832 ;
833 [label="over_time <= 6630.0\nsquared_error = 0.012\nsamples = 6\nvalue = 0.593"] ;
832 -> 833 ;
834 [label="quarter_num <= 2.5\nsquared_error = 0.0\nsamples = 3\nvalue = 0.696"] ;
833 -> 834 ;
835 [label="team <= 4.5\nsquared_error = 0.0\nsamples = 2\nvalue = 0.689"] ;
834 -> 835 ;
836 [label="squared_error = 0.0\nsamples = 1\nvalue = 0.69"] ;
835 -> 836 ;
837 [label="squared_error = 0.0\nsamples = 1\nvalue = 0.688"] ;
835 -> 837 ;
838 [label="squared_error = 0.0\nsamples = 1\nvalue = 0.71"] ;
834 -> 838 ;
839 [label="quarter_num <= 2.5\nsquared_error = 0.002\nsamples = 3\nvalue = 0.489"] ;
833 -> 839 ;
840 [label="no_of_style_change <= 0.5\nsquared_error = 0.0\nsamples = 2\nvalue = 0.517"] ;
839 -> 840 ;
841 [label="squared_error = 0.0\nsamples = 1\nvalue = 0.498"] ;
840 -> 841 ;
842 [label="squared_error = -0.0\nsamples = 1\nvalue = 0.537"] ;
840 -> 842 ;
843 [label="squared_error = 0.0\nsamples = 1\nvalue = 0.432"] ;
839 -> 843 ;
844 [label="incentive <= 69.0\nsquared_error = 0.001\nsamples = 119\nvalue = 0.806"] ;
832 -> 844 ;
845 [label="wip <= 671.0\nsquared_error = 0.001\nsamples = 109\nvalue = 0.802"] ;
844 -> 845 ;
846 [label="	no_of_workers <= 55.0\nsquared_error = 0.002\nsamples = 15\nvalue = 0.782"] ;
845 -> 846 ;
847 [label="wip <= 566.5\nsquared_error = 0.003\nsamples = 4\nvalue = 0.73"] ;
846 -> 847 ;
848 [label="team <= 11.5\nsquared_error = 0.001\nsamples = 2\nvalue = 0.775"] ;
847 -> 848 ;
849 [label="squared_error = 0.0\nsamples = 1\nvalue = 0.751"] ;
848 -> 849 ;
850 [label="squared_error = 0.0\nsamples = 1\nvalue = 0.8"] ;
848 -> 850 ;
851 [label="over_time <= 4665.0\nsquared_error = 0.001\nsamples = 2\nvalue = 0.685"] ;
847 -> 851 ;
852 [label="squared_error = 0.0\nsamples = 1\nvalue = 0.707"] ;
851 -> 852 ;
853 [label="squared_error = -0.0\nsamples = 1\nvalue = 0.662"] ;
851 -> 853 ;
854 [label="team <= 4.5\nsquared_error = 0.0\nsamples = 11\nvalue = 0.8"] ;
846 -> 854 ;
855 [label="no_of_style_change <= 0.5\nsquared_error = 0.0\nsamples = 3\nvalue = 0.801"] ;
854 -> 855 ;
856 [label="team <= 2.5\nsquared_error = 0.0\nsamples = 2\nvalue = 0.8"] ;
855 -> 856 ;
857 [label="squared_error = 0.0\nsamples = 1\nvalue = 0.8"] ;
856 -> 857 ;
858 [label="squared_error = -0.0\nsamples = 1\nvalue = 0.8"] ;
856 -> 858 ;
859 [label="squared_error = 0.0\nsamples = 1\nvalue = 0.801"] ;
855 -> 859 ;
860 [label="	no_of_workers <= 57.0\nsquared_error = 0.0\nsamples = 8\nvalue = 0.8"] ;
854 -> 860 ;
861 [label="squared_error = 0.0\nsamples = 1\nvalue = 0.801"] ;
860 -> 861 ;
862 [label="team <= 10.0\nsquared_error = 0.0\nsamples = 7\nvalue = 0.8"] ;
860 -> 862 ;
863 [label="quarter_num <= 1.5\nsquared_error = 0.0\nsamples = 4\nvalue = 0.8"] ;
862 -> 863 ;
864 [label="squared_error = 0.0\nsamples = 1\nvalue = 0.8"] ;
863 -> 864 ;
865 [label="over_time <= 5190.0\nsquared_error = 0.0\nsamples = 3\nvalue = 0.8"] ;
863 -> 865 ;
866 [label="squared_error = 0.0\nsamples = 1\nvalue = 0.8"] ;
865 -> 866 ;
867 [label="squared_error = 0.0\nsamples = 2\nvalue = 0.8"] ;
865 -> 867 ;
868 [label="squared_error = -0.0\nsamples = 3\nvalue = 0.8"] ;
862 -> 868 ;
869 [label="over_time <= 8085.0\nsquared_error = 0.0\nsamples = 94\nvalue = 0.806"] ;
845 -> 869 ;
870 [label="quarter_num <= 3.5\nsquared_error = 0.0\nsamples = 69\nvalue = 0.802"] ;
869 -> 870 ;
871 [label="	no_of_workers <= 57.5\nsquared_error = 0.0\nsamples = 57\nvalue = 0.8"] ;
870 -> 871 ;
872 [label="smv <= 13.435\nsquared_error = 0.0\nsamples = 47\nvalue = 0.8"] ;
871 -> 872 ;
873 [label="over_time <= 4065.0\nsquared_error = 0.0\nsamples = 19\nvalue = 0.8"] ;
872 -> 873 ;
874 [label="squared_error = 0.0\nsamples = 1\nvalue = 0.801"] ;
873 -> 874 ;
875 [label="wip <= 1178.0\nsquared_error = 0.0\nsamples = 18\nvalue = 0.8"] ;
873 -> 875 ;
876 [label="over_time <= 5400.0\nsquared_error = 0.0\nsamples = 16\nvalue = 0.8"] ;
875 -> 876 ;
877 [label="team <= 9.0\nsquared_error = 0.0\nsamples = 2\nvalue = 0.8"] ;
876 -> 877 ;
878 [label="squared_error = 0.0\nsamples = 1\nvalue = 0.8"] ;
877 -> 878 ;
879 [label="squared_error = 0.0\nsamples = 1\nvalue = 0.8"] ;
877 -> 879 ;
880 [label="over_time <= 5535.0\nsquared_error = 0.0\nsamples = 14\nvalue = 0.8"] ;
876 -> 880 ;
881 [label="squared_error = 0.0\nsamples = 4\nvalue = 0.8"] ;
880 -> 881 ;
882 [label="wip <= 869.5\nsquared_error = 0.0\nsamples = 10\nvalue = 0.8"] ;
880 -> 882 ;
883 [label="quarter_num <= 1.5\nsquared_error = 0.0\nsamples = 2\nvalue = 0.8"] ;
882 -> 883 ;
884 [label="squared_error = 0.0\nsamples = 1\nvalue = 0.8"] ;
883 -> 884 ;
885 [label="squared_error = 0.0\nsamples = 1\nvalue = 0.8"] ;
883 -> 885 ;
886 [label="incentive <= 56.5\nsquared_error = 0.0\nsamples = 8\nvalue = 0.8"] ;
882 -> 886 ;
887 [label="	no_of_workers <= 31.0\nsquared_error = 0.0\nsamples = 7\nvalue = 0.8"] ;
886 -> 887 ;
888 [label="squared_error = 0.0\nsamples = 1\nvalue = 0.8"] ;
887 -> 888 ;
889 [label="day <= 1.5\nsquared_error = 0.0\nsamples = 6\nvalue = 0.8"] ;
887 -> 889 ;
890 [label="squared_error = 0.0\nsamples = 1\nvalue = 0.8"] ;
889 -> 890 ;
891 [label="squared_error = 0.0\nsamples = 5\nvalue = 0.8"] ;
889 -> 891 ;
892 [label="squared_error = -0.0\nsamples = 1\nvalue = 0.8"] ;
886 -> 892 ;
893 [label="	no_of_workers <= 31.5\nsquared_error = 0.0\nsamples = 2\nvalue = 0.8"] ;
875 -> 893 ;
894 [label="squared_error = 0.0\nsamples = 1\nvalue = 0.8"] ;
893 -> 894 ;
895 [label="squared_error = 0.0\nsamples = 1\nvalue = 0.8"] ;
893 -> 895 ;
896 [label="smv <= 26.99\nsquared_error = 0.0\nsamples = 28\nvalue = 0.8"] ;
872 -> 896 ;
897 [label="over_time <= 6750.0\nsquared_error = 0.0\nsamples = 21\nvalue = 0.8"] ;
896 -> 897 ;
898 [label="smv <= 24.21\nsquared_error = 0.0\nsamples = 20\nvalue = 0.8"] ;
897 -> 898 ;
899 [label="smv <= 17.285\nsquared_error = 0.0\nsamples = 17\nvalue = 0.8"] ;
898 -> 899 ;
900 [label="over_time <= 3900.0\nsquared_error = 0.0\nsamples = 12\nvalue = 0.8"] ;
899 -> 900 ;
901 [label="	no_of_workers <= 34.5\nsquared_error = 0.0\nsamples = 2\nvalue = 0.8"] ;
900 -> 901 ;
902 [label="squared_error = 0.0\nsamples = 1\nvalue = 0.8"] ;
901 -> 902 ;
903 [label="squared_error = 0.0\nsamples = 1\nvalue = 0.8"] ;
901 -> 903 ;
904 [label="squared_error = -0.0\nsamples = 10\nvalue = 0.8"] ;
900 -> 904 ;
905 [label="wip <= 12248.0\nsquared_error = 0.0\nsamples = 5\nvalue = 0.8"] ;
899 -> 905 ;
906 [label="over_time <= 3810.0\nsquared_error = 0.0\nsamples = 4\nvalue = 0.8"] ;
905 -> 906 ;
907 [label="squared_error = 0.0\nsamples = 1\nvalue = 0.8"] ;
906 -> 907 ;
908 [label="over_time <= 5100.0\nsquared_error = 0.0\nsamples = 3\nvalue = 0.8"] ;
906 -> 908 ;
909 [label="incentive <= 56.5\nsquared_error = 0.0\nsamples = 2\nvalue = 0.8"] ;
908 -> 909 ;
910 [label="squared_error = 0.0\nsamples = 1\nvalue = 0.8"] ;
909 -> 910 ;
911 [label="squared_error = 0.0\nsamples = 1\nvalue = 0.8"] ;
909 -> 911 ;
912 [label="squared_error = -0.0\nsamples = 1\nvalue = 0.8"] ;
908 -> 912 ;
913 [label="squared_error = 0.0\nsamples = 1\nvalue = 0.8"] ;
905 -> 913 ;
914 [label="day <= 3.5\nsquared_error = 0.0\nsamples = 3\nvalue = 0.8"] ;
898 -> 914 ;
915 [label="squared_error = 0.0\nsamples = 1\nvalue = 0.8"] ;
914 -> 915 ;
916 [label="squared_error = 0.0\nsamples = 2\nvalue = 0.8"] ;
914 -> 916 ;
917 [label="squared_error = -0.0\nsamples = 1\nvalue = 0.801"] ;
897 -> 917 ;
918 [label="over_time <= 6420.0\nsquared_error = 0.0\nsamples = 7\nvalue = 0.8"] ;
896 -> 918 ;
919 [label="over_time <= 5280.0\nsquared_error = 0.0\nsamples = 3\nvalue = 0.801"] ;
918 -> 919 ;
920 [label="wip <= 1078.0\nsquared_error = 0.0\nsamples = 2\nvalue = 0.801"] ;
919 -> 920 ;
921 [label="squared_error = 0.0\nsamples = 1\nvalue = 0.801"] ;
920 -> 921 ;
922 [label="squared_error = -0.0\nsamples = 1\nvalue = 0.801"] ;
920 -> 922 ;
923 [label="squared_error = 0.0\nsamples = 1\nvalue = 0.801"] ;
919 -> 923 ;
924 [label="no_of_style_change <= 0.5\nsquared_error = 0.0\nsamples = 4\nvalue = 0.8"] ;
918 -> 924 ;
925 [label="wip <= 847.5\nsquared_error = 0.0\nsamples = 3\nvalue = 0.8"] ;
924 -> 925 ;
926 [label="squared_error = 0.0\nsamples = 1\nvalue = 0.8"] ;
925 -> 926 ;
927 [label="smv <= 28.74\nsquared_error = 0.0\nsamples = 2\nvalue = 0.8"] ;
925 -> 927 ;
928 [label="squared_error = 0.0\nsamples = 1\nvalue = 0.8"] ;
927 -> 928 ;
929 [label="squared_error = 0.0\nsamples = 1\nvalue = 0.8"] ;
927 -> 929 ;
930 [label="squared_error = -0.0\nsamples = 1\nvalue = 0.801"] ;
924 -> 930 ;
931 [label="over_time <= 7020.0\nsquared_error = 0.0\nsamples = 10\nvalue = 0.8"] ;
871 -> 931 ;
932 [label="day <= 2.5\nsquared_error = 0.0\nsamples = 8\nvalue = 0.8"] ;
931 -> 932 ;
933 [label="smv <= 29.09\nsquared_error = 0.0\nsamples = 3\nvalue = 0.8"] ;
932 -> 933 ;
934 [label="squared_error = 0.0\nsamples = 2\nvalue = 0.8"] ;
933 -> 934 ;
935 [label="squared_error = 0.0\nsamples = 1\nvalue = 0.8"] ;
933 -> 935 ;
936 [label="over_time <= 5310.0\nsquared_error = 0.0\nsamples = 5\nvalue = 0.8"] ;
932 -> 936 ;
937 [label="squared_error = 0.0\nsamples = 1\nvalue = 0.8"] ;
936 -> 937 ;
938 [label="squared_error = 0.0\nsamples = 4\nvalue = 0.8"] ;
936 -> 938 ;
939 [label="incentive <= 56.5\nsquared_error = 0.0\nsamples = 2\nvalue = 0.8"] ;
931 -> 939 ;
940 [label="squared_error = 0.0\nsamples = 1\nvalue = 0.8"] ;
939 -> 940 ;
941 [label="squared_error = 0.0\nsamples = 1\nvalue = 0.8"] ;
939 -> 941 ;
942 [label="wip <= 1104.5\nsquared_error = 0.0\nsamples = 12\nvalue = 0.809"] ;
870 -> 942 ;
943 [label="wip <= 1010.0\nsquared_error = 0.0\nsamples = 8\nvalue = 0.8"] ;
942 -> 943 ;
944 [label="day <= 5.5\nsquared_error = 0.0\nsamples = 5\nvalue = 0.8"] ;
943 -> 944 ;
945 [label="smv <= 20.855\nsquared_error = 0.0\nsamples = 4\nvalue = 0.8"] ;
944 -> 945 ;
946 [label="squared_error = 0.0\nsamples = 1\nvalue = 0.8"] ;
945 -> 946 ;
947 [label="wip <= 896.0\nsquared_error = 0.0\nsamples = 3\nvalue = 0.8"] ;
945 -> 947 ;
948 [label="wip <= 838.5\nsquared_error = 0.0\nsamples = 2\nvalue = 0.8"] ;
947 -> 948 ;
949 [label="squared_error = 0.0\nsamples = 1\nvalue = 0.8"] ;
948 -> 949 ;
950 [label="squared_error = 0.0\nsamples = 1\nvalue = 0.8"] ;
948 -> 950 ;
951 [label="squared_error = -0.0\nsamples = 1\nvalue = 0.8"] ;
947 -> 951 ;
952 [label="squared_error = -0.0\nsamples = 1\nvalue = 0.8"] ;
944 -> 952 ;
953 [label="day <= 2.5\nsquared_error = 0.0\nsamples = 3\nvalue = 0.8"] ;
943 -> 953 ;
954 [label="squared_error = 0.0\nsamples = 1\nvalue = 0.8"] ;
953 -> 954 ;
955 [label="squared_error = 0.0\nsamples = 2\nvalue = 0.8"] ;
953 -> 955 ;
956 [label="wip <= 1178.0\nsquared_error = 0.001\nsamples = 4\nvalue = 0.825"] ;
942 -> 956 ;
957 [label="day <= 2.5\nsquared_error = 0.0\nsamples = 2\nvalue = 0.85"] ;
956 -> 957 ;
958 [label="squared_error = 0.0\nsamples = 1\nvalue = 0.85"] ;
957 -> 958 ;
959 [label="squared_error = -0.0\nsamples = 1\nvalue = 0.851"] ;
957 -> 959 ;
960 [label="smv <= 17.065\nsquared_error = 0.0\nsamples = 2\nvalue = 0.8"] ;
956 -> 960 ;
961 [label="squared_error = 0.0\nsamples = 1\nvalue = 0.8"] ;
960 -> 961 ;
962 [label="squared_error = -0.0\nsamples = 1\nvalue = 0.8"] ;
960 -> 962 ;
963 [label="smv <= 26.03\nsquared_error = 0.001\nsamples = 25\nvalue = 0.816"] ;
869 -> 963 ;
964 [label="incentive <= 55.0\nsquared_error = 0.001\nsamples = 13\nvalue = 0.831"] ;
963 -> 964 ;
965 [label="day <= 6.5\nsquared_error = 0.0\nsamples = 6\nvalue = 0.809"] ;
964 -> 965 ;
966 [label="team <= 5.0\nsquared_error = 0.0\nsamples = 5\nvalue = 0.8"] ;
965 -> 966 ;
967 [label="squared_error = 0.0\nsamples = 2\nvalue = 0.8"] ;
966 -> 967 ;
968 [label="squared_error = -0.0\nsamples = 3\nvalue = 0.8"] ;
966 -> 968 ;
969 [label="squared_error = 0.0\nsamples = 1\nvalue = 0.85"] ;
965 -> 969 ;
970 [label="over_time <= 9570.0\nsquared_error = 0.0\nsamples = 7\nvalue = 0.85"] ;
964 -> 970 ;
971 [label="squared_error = 0.0\nsamples = 1\nvalue = 0.85"] ;
970 -> 971 ;
972 [label="squared_error = 0.0\nsamples = 6\nvalue = 0.85"] ;
970 -> 972 ;
973 [label="over_time <= 10440.0\nsquared_error = 0.0\nsamples = 12\nvalue = 0.8"] ;
963 -> 973 ;
974 [label="	no_of_workers <= 58.5\nsquared_error = 0.0\nsamples = 5\nvalue = 0.801"] ;
973 -> 974 ;
975 [label="squared_error = 0.0\nsamples = 4\nvalue = 0.801"] ;
974 -> 975 ;
976 [label="squared_error = -0.0\nsamples = 1\nvalue = 0.8"] ;
974 -> 976 ;
977 [label="wip <= 1087.0\nsquared_error = 0.0\nsamples = 7\nvalue = 0.8"] ;
973 -> 977 ;
978 [label="squared_error = -0.0\nsamples = 3\nvalue = 0.8"] ;
977 -> 978 ;
979 [label="squared_error = 0.0\nsamples = 4\nvalue = 0.8"] ;
977 -> 979 ;
980 [label="	no_of_workers <= 74.0\nsquared_error = 0.0\nsamples = 10\nvalue = 0.85"] ;
844 -> 980 ;
981 [label="over_time <= 8850.0\nsquared_error = 0.0\nsamples = 9\nvalue = 0.851"] ;
980 -> 981 ;
982 [label="squared_error = 0.0\nsamples = 1\nvalue = 0.851"] ;
981 -> 982 ;
983 [label="squared_error = 0.0\nsamples = 8\nvalue = 0.851"] ;
981 -> 983 ;
984 [label="squared_error = 0.0\nsamples = 1\nvalue = 0.85"] ;
980 -> 984 ;
985 [label="team <= 10.5\nsquared_error = 0.026\nsamples = 88\nvalue = 0.842"] ;
585 -> 985 ;
986 [label="over_time <= 1530.0\nsquared_error = 0.022\nsamples = 80\nvalue = 0.856"] ;
985 -> 986 ;
987 [label="team <= 1.5\nsquared_error = 0.026\nsamples = 51\nvalue = 0.833"] ;
986 -> 987 ;
988 [label="quarter_num <= 4.5\nsquared_error = 0.002\nsamples = 9\nvalue = 0.931"] ;
987 -> 988 ;
989 [label="day <= 2.5\nsquared_error = 0.001\nsamples = 8\nvalue = 0.941"] ;
988 -> 989 ;
990 [label="over_time <= 1320.0\nsquared_error = 0.0\nsamples = 4\nvalue = 0.959"] ;
989 -> 990 ;
991 [label="squared_error = 0.0\nsamples = 1\nvalue = 0.995"] ;
990 -> 991 ;
992 [label="quarter_num <= 1.5\nsquared_error = 0.0\nsamples = 3\nvalue = 0.948"] ;
990 -> 992 ;
993 [label="squared_error = 0.0\nsamples = 1\nvalue = 0.936"] ;
992 -> 993 ;
994 [label="day <= 1.5\nsquared_error = 0.0\nsamples = 2\nvalue = 0.953"] ;
992 -> 994 ;
995 [label="squared_error = 0.0\nsamples = 1\nvalue = 0.955"] ;
994 -> 995 ;
996 [label="squared_error = 0.0\nsamples = 1\nvalue = 0.951"] ;
994 -> 996 ;
997 [label="quarter_num <= 3.0\nsquared_error = 0.001\nsamples = 4\nvalue = 0.922"] ;
989 -> 997 ;
998 [label="day <= 3.5\nsquared_error = 0.001\nsamples = 3\nvalue = 0.914"] ;
997 -> 998 ;
999 [label="squared_error = 0.0\nsamples = 1\nvalue = 0.892"] ;
998 -> 999 ;
1000 [label="over_time <= 1200.0\nsquared_error = 0.001\nsamples = 2\nvalue = 0.925"] ;
998 -> 1000 ;
1001 [label="squared_error = 0.0\nsamples = 1\nvalue = 0.903"] ;
1000 -> 1001 ;
1002 [label="squared_error = 0.0\nsamples = 1\nvalue = 0.948"] ;
1000 -> 1002 ;
1003 [label="squared_error = 0.0\nsamples = 1\nvalue = 0.946"] ;
997 -> 1003 ;
1004 [label="squared_error = 0.0\nsamples = 1\nvalue = 0.854"] ;
988 -> 1004 ;
1005 [label="day <= 5.0\nsquared_error = 0.029\nsamples = 42\nvalue = 0.812"] ;
987 -> 1005 ;
1006 [label="targeted_productivity <= 0.775\nsquared_error = 0.037\nsamples = 24\nvalue = 0.767"] ;
1005 -> 1006 ;
1007 [label="day <= 1.5\nsquared_error = 0.007\nsamples = 7\nvalue = 0.836"] ;
1006 -> 1007 ;
1008 [label="squared_error = 0.0\nsamples = 1\nvalue = 0.994"] ;
1007 -> 1008 ;
1009 [label="	no_of_workers <= 10.5\nsquared_error = 0.003\nsamples = 6\nvalue = 0.81"] ;
1007 -> 1009 ;
1010 [label="day <= 3.5\nsquared_error = 0.0\nsamples = 5\nvalue = 0.788"] ;
1009 -> 1010 ;
1011 [label="quarter_num <= 2.5\nsquared_error = 0.0\nsamples = 3\nvalue = 0.801"] ;
1010 -> 1011 ;
1012 [label="day <= 2.5\nsquared_error = 0.0\nsamples = 2\nvalue = 0.808"] ;
1011 -> 1012 ;
1013 [label="squared_error = 0.0\nsamples = 1\nvalue = 0.81"] ;
1012 -> 1013 ;
1014 [label="squared_error = 0.0\nsamples = 1\nvalue = 0.806"] ;
1012 -> 1014 ;
1015 [label="squared_error = 0.0\nsamples = 1\nvalue = 0.788"] ;
1011 -> 1015 ;
1016 [label="over_time <= 1200.0\nsquared_error = 0.0\nsamples = 2\nvalue = 0.767"] ;
1010 -> 1016 ;
1017 [label="squared_error = 0.0\nsamples = 1\nvalue = 0.755"] ;
1016 -> 1017 ;
1018 [label="squared_error = -0.0\nsamples = 1\nvalue = 0.78"] ;
1016 -> 1018 ;
1019 [label="squared_error = -0.0\nsamples = 1\nvalue = 0.92"] ;
1009 -> 1019 ;
1020 [label="team <= 9.5\nsquared_error = 0.047\nsamples = 17\nvalue = 0.739"] ;
1006 -> 1020 ;
1021 [label="over_time <= 1350.0\nsquared_error = 0.035\nsamples = 15\nvalue = 0.764"] ;
1020 -> 1021 ;
1022 [label="team <= 3.5\nsquared_error = 0.095\nsamples = 3\nvalue = 0.576"] ;
1021 -> 1022 ;
1023 [label="team <= 2.5\nsquared_error = 0.015\nsamples = 2\nvalue = 0.37"] ;
1022 -> 1023 ;
1024 [label="squared_error = 0.0\nsamples = 1\nvalue = 0.247"] ;
1023 -> 1024 ;
1025 [label="squared_error = 0.0\nsamples = 1\nvalue = 0.492"] ;
1023 -> 1025 ;
1026 [label="squared_error = 0.0\nsamples = 1\nvalue = 0.989"] ;
1022 -> 1026 ;
1027 [label="	no_of_workers <= 10.0\nsquared_error = 0.009\nsamples = 12\nvalue = 0.811"] ;
1021 -> 1027 ;
1028 [label="day <= 1.5\nsquared_error = 0.001\nsamples = 8\nvalue = 0.84"] ;
1027 -> 1028 ;
1029 [label="team <= 5.5\nsquared_error = 0.0\nsamples = 2\nvalue = 0.869"] ;
1028 -> 1029 ;
1030 [label="squared_error = 0.0\nsamples = 1\nvalue = 0.881"] ;
1029 -> 1030 ;
1031 [label="squared_error = -0.0\nsamples = 1\nvalue = 0.858"] ;
1029 -> 1031 ;
1032 [label="team <= 6.0\nsquared_error = 0.0\nsamples = 6\nvalue = 0.831"] ;
1028 -> 1032 ;
1033 [label="day <= 2.5\nsquared_error = 0.0\nsamples = 4\nvalue = 0.817"] ;
1032 -> 1033 ;
1034 [label="squared_error = 0.0\nsamples = 2\nvalue = 0.806"] ;
1033 -> 1034 ;
1035 [label="	no_of_workers <= 7.5\nsquared_error = 0.0\nsamples = 2\nvalue = 0.828"] ;
1033 -> 1035 ;
1036 [label="squared_error = 0.0\nsamples = 1\nvalue = 0.821"] ;
1035 -> 1036 ;
1037 [label="squared_error = 0.0\nsamples = 1\nvalue = 0.836"] ;
1035 -> 1037 ;
1038 [label="squared_error = 0.0\nsamples = 2\nvalue = 0.858"] ;
1032 -> 1038 ;
1039 [label="quarter_num <= 2.5\nsquared_error = 0.021\nsamples = 4\nvalue = 0.753"] ;
1027 -> 1039 ;
1040 [label="day <= 1.5\nsquared_error = 0.018\nsamples = 2\nvalue = 0.673"] ;
1039 -> 1040 ;
1041 [label="squared_error = 0.0\nsamples = 1\nvalue = 0.809"] ;
1040 -> 1041 ;
1042 [label="squared_error = 0.0\nsamples = 1\nvalue = 0.538"] ;
1040 -> 1042 ;
1043 [label="day <= 2.5\nsquared_error = 0.012\nsamples = 2\nvalue = 0.832"] ;
1039 -> 1043 ;
1044 [label="squared_error = 0.0\nsamples = 1\nvalue = 0.941"] ;
1043 -> 1044 ;
1045 [label="squared_error = 0.0\nsamples = 1\nvalue = 0.723"] ;
1043 -> 1045 ;
1046 [label="over_time <= 1320.0\nsquared_error = 0.093\nsamples = 2\nvalue = 0.552"] ;
1020 -> 1046 ;
1047 [label="squared_error = 0.0\nsamples = 1\nvalue = 0.857"] ;
1046 -> 1047 ;
1048 [label="squared_error = -0.0\nsamples = 1\nvalue = 0.246"] ;
1046 -> 1048 ;
1049 [label="quarter_num <= 4.5\nsquared_error = 0.012\nsamples = 18\nvalue = 0.871"] ;
1005 -> 1049 ;
1050 [label="team <= 8.0\nsquared_error = 0.012\nsamples = 15\nvalue = 0.851"] ;
1049 -> 1050 ;
1051 [label="day <= 6.5\nsquared_error = 0.017\nsamples = 8\nvalue = 0.811"] ;
1050 -> 1051 ;
1052 [label="team <= 5.0\nsquared_error = 0.017\nsamples = 4\nvalue = 0.729"] ;
1051 -> 1052 ;
1053 [label="team <= 2.5\nsquared_error = 0.018\nsamples = 3\nvalue = 0.764"] ;
1052 -> 1053 ;
1054 [label="quarter_num <= 3.0\nsquared_error = 0.014\nsamples = 2\nvalue = 0.698"] ;
1053 -> 1054 ;
1055 [label="squared_error = 0.0\nsamples = 1\nvalue = 0.817"] ;
1054 -> 1055 ;
1056 [label="squared_error = 0.0\nsamples = 1\nvalue = 0.578"] ;
1054 -> 1056 ;
1057 [label="squared_error = -0.0\nsamples = 1\nvalue = 0.895"] ;
1053 -> 1057 ;
1058 [label="squared_error = -0.0\nsamples = 1\nvalue = 0.625"] ;
1052 -> 1058 ;
1059 [label="targeted_productivity <= 0.775\nsquared_error = 0.004\nsamples = 4\nvalue = 0.893"] ;
1051 -> 1059 ;
1060 [label="quarter_num <= 3.0\nsquared_error = 0.0\nsamples = 2\nvalue = 0.953"] ;
1059 -> 1060 ;
1061 [label="squared_error = 0.0\nsamples = 1\nvalue = 0.935"] ;
1060 -> 1061 ;
1062 [label="squared_error = -0.0\nsamples = 1\nvalue = 0.97"] ;
1060 -> 1062 ;
1063 [label="team <= 3.0\nsquared_error = 0.0\nsamples = 2\nvalue = 0.833"] ;
1059 -> 1063 ;
1064 [label="squared_error = 0.0\nsamples = 1\nvalue = 0.821"] ;
1063 -> 1064 ;
1065 [label="squared_error = 0.0\nsamples = 1\nvalue = 0.845"] ;
1063 -> 1065 ;
1066 [label="quarter_num <= 2.5\nsquared_error = 0.003\nsamples = 7\nvalue = 0.897"] ;
1050 -> 1066 ;
1067 [label="over_time <= 1080.0\nsquared_error = 0.002\nsamples = 6\nvalue = 0.885"] ;
1066 -> 1067 ;
1068 [label="smv <= 4.045\nsquared_error = 0.0\nsamples = 2\nvalue = 0.944"] ;
1067 -> 1068 ;
1069 [label="squared_error = 0.0\nsamples = 1\nvalue = 0.932"] ;
1068 -> 1069 ;
1070 [label="squared_error = -0.0\nsamples = 1\nvalue = 0.956"] ;
1068 -> 1070 ;
1071 [label="quarter_num <= 1.5\nsquared_error = 0.0\nsamples = 4\nvalue = 0.855"] ;
1067 -> 1071 ;
1072 [label="squared_error = 0.0\nsamples = 1\nvalue = 0.886"] ;
1071 -> 1072 ;
1073 [label="team <= 9.5\nsquared_error = 0.0\nsamples = 3\nvalue = 0.844"] ;
1071 -> 1073 ;
1074 [label="squared_error = 0.0\nsamples = 1\nvalue = 0.858"] ;
1073 -> 1074 ;
1075 [label="day <= 6.5\nsquared_error = 0.0\nsamples = 2\nvalue = 0.838"] ;
1073 -> 1075 ;
1076 [label="squared_error = 0.0\nsamples = 1\nvalue = 0.847"] ;
1075 -> 1076 ;
1077 [label="squared_error = 0.0\nsamples = 1\nvalue = 0.828"] ;
1075 -> 1077 ;
1078 [label="squared_error = 0.0\nsamples = 1\nvalue = 0.975"] ;
1066 -> 1078 ;
1079 [label="squared_error = -0.0\nsamples = 3\nvalue = 0.972"] ;
1049 -> 1079 ;
1080 [label="smv <= 4.225\nsquared_error = 0.012\nsamples = 29\nvalue = 0.896"] ;
986 -> 1080 ;
1081 [label="quarter_num <= 3.5\nsquared_error = 0.01\nsamples = 28\nvalue = 0.905"] ;
1080 -> 1081 ;
1082 [label="targeted_productivity <= 0.775\nsquared_error = 0.011\nsamples = 21\nvalue = 0.883"] ;
1081 -> 1082 ;
1083 [label="day <= 5.5\nsquared_error = 0.026\nsamples = 5\nvalue = 0.788"] ;
1082 -> 1083 ;
1084 [label="over_time <= 2220.0\nsquared_error = 0.025\nsamples = 4\nvalue = 0.748"] ;
1083 -> 1084 ;
1085 [label="quarter_num <= 1.5\nsquared_error = 0.007\nsamples = 3\nvalue = 0.829"] ;
1084 -> 1085 ;
1086 [label="	no_of_workers <= 9.0\nsquared_error = 0.0\nsamples = 2\nvalue = 0.887"] ;
1085 -> 1086 ;
1087 [label="squared_error = 0.0\nsamples = 1\nvalue = 0.875"] ;
1086 -> 1087 ;
1088 [label="squared_error = 0.0\nsamples = 1\nvalue = 0.899"] ;
1086 -> 1088 ;
1089 [label="squared_error = 0.0\nsamples = 1\nvalue = 0.713"] ;
1085 -> 1089 ;
1090 [label="squared_error = -0.0\nsamples = 1\nvalue = 0.505"] ;
1084 -> 1090 ;
1091 [label="squared_error = -0.0\nsamples = 1\nvalue = 0.95"] ;
1083 -> 1091 ;
1092 [label="team <= 2.5\nsquared_error = 0.003\nsamples = 16\nvalue = 0.913"] ;
1082 -> 1092 ;
1093 [label="day <= 1.5\nsquared_error = 0.0\nsamples = 4\nvalue = 0.982"] ;
1092 -> 1093 ;
1094 [label="squared_error = 0.0\nsamples = 1\nvalue = 0.961"] ;
1093 -> 1094 ;
1095 [label="	no_of_workers <= 15.0\nsquared_error = 0.0\nsamples = 3\nvalue = 0.989"] ;
1093 -> 1095 ;
1096 [label="	no_of_workers <= 9.0\nsquared_error = 0.0\nsamples = 2\nvalue = 0.983"] ;
1095 -> 1096 ;
1097 [label="squared_error = 0.0\nsamples = 1\nvalue = 0.985"] ;
1096 -> 1097 ;
1098 [label="squared_error = 0.0\nsamples = 1\nvalue = 0.981"] ;
1096 -> 1098 ;
1099 [label="squared_error = 0.0\nsamples = 1\nvalue = 1.001"] ;
1095 -> 1099 ;
1100 [label="quarter_num <= 2.5\nsquared_error = 0.002\nsamples = 12\nvalue = 0.89"] ;
1092 -> 1100 ;
1101 [label="day <= 2.5\nsquared_error = 0.001\nsamples = 10\nvalue = 0.903"] ;
1100 -> 1101 ;
1102 [label="over_time <= 4140.0\nsquared_error = 0.001\nsamples = 5\nvalue = 0.916"] ;
1101 -> 1102 ;
1103 [label="	no_of_workers <= 13.0\nsquared_error = 0.0\nsamples = 3\nvalue = 0.9"] ;
1102 -> 1103 ;
1104 [label="	no_of_workers <= 9.5\nsquared_error = 0.0\nsamples = 2\nvalue = 0.903"] ;
1103 -> 1104 ;
1105 [label="squared_error = 0.0\nsamples = 1\nvalue = 0.901"] ;
1104 -> 1105 ;
1106 [label="squared_error = 0.0\nsamples = 1\nvalue = 0.905"] ;
1104 -> 1106 ;
1107 [label="squared_error = -0.0\nsamples = 1\nvalue = 0.894"] ;
1103 -> 1107 ;
1108 [label="over_time <= 4920.0\nsquared_error = 0.001\nsamples = 2\nvalue = 0.94"] ;
1102 -> 1108 ;
1109 [label="squared_error = 0.0\nsamples = 1\nvalue = 0.967"] ;
1108 -> 1109 ;
1110 [label="squared_error = 0.0\nsamples = 1\nvalue = 0.913"] ;
1108 -> 1110 ;
1111 [label="quarter_num <= 1.5\nsquared_error = 0.001\nsamples = 5\nvalue = 0.889"] ;
1101 -> 1111 ;
1112 [label="	no_of_workers <= 19.0\nsquared_error = 0.0\nsamples = 2\nvalue = 0.844"] ;
1111 -> 1112 ;
1113 [label="squared_error = 0.0\nsamples = 1\nvalue = 0.827"] ;
1112 -> 1113 ;
1114 [label="squared_error = -0.0\nsamples = 1\nvalue = 0.862"] ;
1112 -> 1114 ;
1115 [label="over_time <= 4800.0\nsquared_error = 0.0\nsamples = 3\nvalue = 0.919"] ;
1111 -> 1115 ;
1116 [label="squared_error = 0.0\nsamples = 1\nvalue = 0.926"] ;
1115 -> 1116 ;
1117 [label="over_time <= 9300.0\nsquared_error = 0.0\nsamples = 2\nvalue = 0.916"] ;
1115 -> 1117 ;
1118 [label="squared_error = 0.0\nsamples = 1\nvalue = 0.912"] ;
1117 -> 1118 ;
1119 [label="squared_error = 0.0\nsamples = 1\nvalue = 0.92"] ;
1117 -> 1119 ;
1120 [label="over_time <= 2100.0\nsquared_error = 0.0\nsamples = 2\nvalue = 0.827"] ;
1100 -> 1120 ;
1121 [label="squared_error = 0.0\nsamples = 1\nvalue = 0.827"] ;
1120 -> 1121 ;
1122 [label="squared_error = -0.0\nsamples = 1\nvalue = 0.827"] ;
1120 -> 1122 ;
1123 [label="day <= 2.0\nsquared_error = 0.002\nsamples = 7\nvalue = 0.969"] ;
1081 -> 1123 ;
1124 [label="over_time <= 2790.0\nsquared_error = 0.001\nsamples = 2\nvalue = 1.029"] ;
1123 -> 1124 ;
1125 [label="squared_error = 0.0\nsamples = 1\nvalue = 1.06"] ;
1124 -> 1125 ;
1126 [label="squared_error = -0.0\nsamples = 1\nvalue = 0.998"] ;
1124 -> 1126 ;
1127 [label="targeted_productivity <= 0.775\nsquared_error = 0.001\nsamples = 5\nvalue = 0.946"] ;
1123 -> 1127 ;
1128 [label="team <= 6.5\nsquared_error = 0.0\nsamples = 4\nvalue = 0.957"] ;
1127 -> 1128 ;
1129 [label="team <= 2.0\nsquared_error = 0.0\nsamples = 2\nvalue = 0.967"] ;
1128 -> 1129 ;
1130 [label="squared_error = 0.0\nsamples = 1\nvalue = 0.972"] ;
1129 -> 1130 ;
1131 [label="squared_error = 0.0\nsamples = 1\nvalue = 0.962"] ;
1129 -> 1131 ;
1132 [label="day <= 6.5\nsquared_error = 0.0\nsamples = 2\nvalue = 0.946"] ;
1128 -> 1132 ;
1133 [label="squared_error = 0.0\nsamples = 1\nvalue = 0.937"] ;
1132 -> 1133 ;
1134 [label="squared_error = 0.0\nsamples = 1\nvalue = 0.955"] ;
1132 -> 1134 ;
1135 [label="squared_error = 0.0\nsamples = 1\nvalue = 0.902"] ;
1127 -> 1135 ;
1136 [label="squared_error = 0.0\nsamples = 1\nvalue = 0.652"] ;
1080 -> 1136 ;
1137 [label="	no_of_workers <= 7.5\nsquared_error = 0.043\nsamples = 8\nvalue = 0.701"] ;
985 -> 1137 ;
1138 [label="quarter_num <= 2.5\nsquared_error = 0.01\nsamples = 2\nvalue = 0.415"] ;
1137 -> 1138 ;
1139 [label="squared_error = 0.0\nsamples = 1\nvalue = 0.516"] ;
1138 -> 1139 ;
1140 [label="squared_error = 0.0\nsamples = 1\nvalue = 0.314"] ;
1138 -> 1140 ;
1141 [label="	no_of_workers <= 9.5\nsquared_error = 0.017\nsamples = 6\nvalue = 0.796"] ;
1137 -> 1141 ;
1142 [label="day <= 5.0\nsquared_error = 0.009\nsamples = 3\nvalue = 0.684"] ;
1141 -> 1142 ;
1143 [label="quarter_num <= 3.5\nsquared_error = 0.0\nsamples = 2\nvalue = 0.618"] ;
1142 -> 1143 ;
1144 [label="squared_error = 0.0\nsamples = 1\nvalue = 0.601"] ;
1143 -> 1144 ;
1145 [label="squared_error = -0.0\nsamples = 1\nvalue = 0.635"] ;
1143 -> 1145 ;
1146 [label="squared_error = 0.0\nsamples = 1\nvalue = 0.817"] ;
1142 -> 1146 ;
1147 [label="day <= 1.5\nsquared_error = 0.001\nsamples = 3\nvalue = 0.908"] ;
1141 -> 1147 ;
1148 [label="squared_error = 0.0\nsamples = 1\nvalue = 0.94"] ;
1147 -> 1148 ;
1149 [label="day <= 4.0\nsquared_error = 0.0\nsamples = 2\nvalue = 0.892"] ;
1147 -> 1149 ;
1150 [label="squared_error = 0.0\nsamples = 1\nvalue = 0.889"] ;
1149 -> 1150 ;
1151 [label="squared_error = 0.0\nsamples = 1\nvalue = 0.896"] ;
1149 -> 1151 ;
1152 [label="incentive <= 28.5\nsquared_error = 0.021\nsamples = 9\nvalue = 0.575"] ;
584 -> 1152 ;
1153 [label="over_time <= 7305.0\nsquared_error = 0.004\nsamples = 3\nvalue = 0.396"] ;
1152 -> 1153 ;
1154 [label="squared_error = 0.0\nsamples = 1\nvalue = 0.311"] ;
1153 -> 1154 ;
1155 [label="quarter_num <= 2.5\nsquared_error = 0.001\nsamples = 2\nvalue = 0.438"] ;
1153 -> 1155 ;
1156 [label="squared_error = 0.0\nsamples = 1\nvalue = 0.473"] ;
1155 -> 1156 ;
1157 [label="squared_error = 0.0\nsamples = 1\nvalue = 0.403"] ;
1155 -> 1157 ;
